{"learner":{"attributes":{"scikit_learn":"{\"_estimator_type\": \"regressor\"}"},"feature_names":["Temperature","Humidity","Wind_Speed_kmh","Soil_Temperature","Wind_Dir_Sin","Wind_Dir_Cos","Precipitation_log","ts_unix","ts_norm","hour_sin","hour_cos","doy_sin","doy_cos","dow_sin","dow_cos","delta_t","delta_t_norm"],"feature_types":["float","float","float","float","float","float","float","int","float","float","float","float","float","float","float","float","float"],"gradient_booster":{"model":{"gbtree_model_param":{"num_parallel_tree":"1","num_trees":"372"},"iteration_indptr":[0,1,2,3,4,5,6,7,8,9,10,11,12,13,14,15,16,17,18,19,20,21,22,23,24,25,26,27,28,29,30,31,32,33,34,35,36,37,38,39,40,41,42,43,44,45,46,47,48,49,50,51,52,53,54,55,56,57,58,59,60,61,62,63,64,65,66,67,68,69,70,71,72,73,74,75,76,77,78,79,80,81,82,83,84,85,86,87,88,89,90,91,92,93,94,95,96,97,98,99,100,101,102,103,104,105,106,107,108,109,110,111,112,113,114,115,116,117,118,119,120,121,122,123,124,125,126,127,128,129,130,131,132,133,134,135,136,137,138,139,140,141,142,143,144,145,146,147,148,149,150,151,152,153,154,155,156,157,158,159,160,161,162,163,164,165,166,167,168,169,170,171,172,173,174,175,176,177,178,179,180,181,182,183,184,185,186,187,188,189,190,191,192,193,194,195,196,197,198,199,200,201,202,203,204,205,206,207,208,209,210,211,212,213,214,215,216,217,218,219,220,221,222,223,224,225,226,227,228,229,230,231,232,233,234,235,236,237,238,239,240,241,242,243,244,245,246,247,248,249,250,251,252,253,254,255,256,257,258,259,260,261,262,263,264,265,266,267,268,269,270,271,272,273,274,275,276,277,278,279,280,281,282,283,284,285,286,287,288,289,290,291,292,293,294,295,296,297,298,299,300,301,302,303,304,305,306,307,308,309,310,311,312,313,314,315,316,317,318,319,320,321,322,323,324,325,326,327,328,329,330,331,332,333,334,335,336,337,338,339,340,341,342,343,344,345,346,347,348,349,350,351,352,353,354,355,356,357,358,359,360,361,362,363,364,365,366,367,368,369,370,371,372],"tree_info":[0,0,0,0,0,0,0,0,0,0,0,0,0,0,0,0,0,0,0,0,0,0,0,0,0,0,0,0,0,0,0,0,0,0,0,0,0,0,0,0,0,0,0,0,0,0,0,0,0,0,0,0,0,0,0,0,0,0,0,0,0,0,0,0,0,0,0,0,0,0,0,0,0,0,0,0,0,0,0,0,0,0,0,0,0,0,0,0,0,0,0,0,0,0,0,0,0,0,0,0,0,0,0,0,0,0,0,0,0,0,0,0,0,0,0,0,0,0,0,0,0,0,0,0,0,0,0,0,0,0,0,0,0,0,0,0,0,0,0,0,0,0,0,0,0,0,0,0,0,0,0,0,0,0,0,0,0,0,0,0,0,0,0,0,0,0,0,0,0,0,0,0,0,0,0,0,0,0,0,0,0,0,0,0,0,0,0,0,0,0,0,0,0,0,0,0,0,0,0,0,0,0,0,0,0,0,0,0,0,0,0,0,0,0,0,0,0,0,0,0,0,0,0,0,0,0,0,0,0,0,0,0,0,0,0,0,0,0,0,0,0,0,0,0,0,0,0,0,0,0,0,0,0,0,0,0,0,0,0,0,0,0,0,0,0,0,0,0,0,0,0,0,0,0,0,0,0,0,0,0,0,0,0,0,0,0,0,0,0,0,0,0,0,0,0,0,0,0,0,0,0,0,0,0,0,0,0,0,0,0,0,0,0,0,0,0,0,0,0,0,0,0,0,0,0,0,0,0,0,0,0,0,0,0,0,0,0,0,0,0,0,0,0,0,0,0,0,0,0,0,0,0,0,0,0,0,0,0,0,0,0,0,0,0,0,0,0,0,0,0,0,0],"trees":[{"base_weights":[-3.7165308E0,-4.1946057E2,6.930893E2,-7.9755756E2,5.658389E1,6.3716003E2,8.770225E2,-2.8553143E2,-8.865764E2,-2.60598E2,1.9610721E2,6.669102E2,6.423818E1,1.3831477E2,5.931803E2,-1.4346432E2,-4.0777884E2,-8.0298914E2,-1.0406307E3,-3.2209244E2,8.9498E0,4.075716E2,-1.9039366E2,6.178033E2,1.157806E2,9.920996E1,5.0718594E1,-1.7195145E1,-1.7431169E2,-4.3128735E1,-6.985502E1,-9.8760333E2,-6.3033136E2,-1.5898857E2,-7.220626E1,-3.6655865E2,-1.4385416E2,6.755069E1,-4.3580063E1,4.5545297E2,1.4255103E2,-1.2582135E2,-2.5687427E2,8.200911E1,9.5867E1,-8.840921E0,2.2771835E0,-1.2244612E2,-3.6919678E1,-1.1577013E2,-1.6910408E2,-5.7754785E2,-1.23736275E2,-2.4902012E1,-3.7719263E2,-8.3178535E1,-2.899117E1,1.4196778E1,4.655355E1,-6.117833E1,-5.162193E-2,1.9494204E1,4.662398E2,8.083119E1,3.4062817E1,-1.6439505E2,-5.3742237E1,-4.138311E1,-1.9149881E1,-9.30959E0,-2.198992E1,-7.078322E2,-4.675398E2,-4.0508722E2,-4.7078167E1,-7.809645E0,-1.8377188E1,2.9710495E0,9.142517E0,-4.8752236E0,-1.1471784E1,4.1228186E2,8.0602455E1,1.2005554E2,-2.876333E0,-1.5984161E1,-2.8430563E1,-1.8908833E1,-1.2674641E1,-8.76443E1,-1.19075874E2,-8.729051E1,-5.6675556E1,-6.851658E1,-5.2937E1,6.5259834E1,5.021523E1,2.4591759E1,1.3924577E1,1.9661132E-1,-4.7077336E0],"categories":[],"categories_nodes":[],"categories_segments":[],"categories_sizes":[],"default_left":[0,0,0,0,0,0,0,0,0,0,0,0,0,0,0,0,0,0,0,0,0,0,0,0,0,0,0,0,0,0,0,0,0,0,0,0,0,0,0,0,0,0,0,0,0,0,0,0,0,0,0,0,0,0,0,0,0,0,0,0,0,0,0,0,0,0,0,0,0,0,0,0,0,0,0,0,0,0,0,0,0,0,0,0,0,0,0,0,0,0,0,0,0,0,0,0,0,0,0,0,0],"id":0,"left_children":[1,3,5,7,9,11,13,15,17,19,21,23,-1,-1,25,27,29,31,33,35,37,39,41,43,-1,-1,-1,45,47,-1,-1,49,51,-1,-1,53,55,57,59,61,63,65,67,-1,-1,-1,-1,69,-1,-1,-1,71,-1,-1,73,75,-1,-1,77,79,-1,-1,81,83,-1,85,87,-1,-1,-1,-1,89,91,93,-1,-1,-1,-1,-1,-1,-1,95,-1,97,-1,-1,-1,99,-1,-1,-1,-1,-1,-1,-1,-1,-1,-1,-1,-1,-1],"loss_changes":[1.4494644E9,5.641669E8,1.7708416E7,7.892288E7,6.164013E7,8.2416E6,3.704576E6,4.401918E6,1.6864E7,7.065398E6,7.92233E7,5.070144E6,0E0,0E0,4.7598E5,4.8098725E5,5.9397E5,2.94016E7,3.377664E6,2.602932E6,2.5965162E5,7.76164E6,1.386432E6,2.84928E5,0E0,0E0,0E0,3.9834938E4,2.889495E5,0E0,0E0,1.1547456E7,3.899984E6,0E0,0E0,4.17644E5,1.7437125E5,1.0022547E4,3.3795062E4,1.692016E6,4.6594175E5,4.7501025E5,2.98619E5,0E0,0E0,0E0,0E0,6.647256E4,0E0,0E0,0E0,4.982144E6,0E0,0E0,1.17432E5,2.8216312E4,0E0,0E0,7.076176E3,6.7330312E3,0E0,0E0,1.316848E6,2.485421E5,0E0,1.102095E5,6.633594E4,0E0,0E0,0E0,0E0,6.57856E5,1.763568E6,2.1464E4,0E0,0E0,0E0,0E0,0E0,0E0,0E0,1.12036E5,0E0,1.142825E4,0E0,0E0,0E0,8.89835E3,0E0,0E0,0E0,0E0,0E0,0E0,0E0,0E0,0E0,0E0,0E0,0E0,0E0],"parents":[2147483647,0,0,1,1,2,2,3,3,4,4,5,5,6,6,7,7,8,8,9,9,10,10,11,11,14,14,15,15,16,16,17,17,18,18,19,19,20,20,21,21,22,22,23,23,27,27,28,28,31,31,32,32,35,35,36,36,37,37,38,38,39,39,40,40,41,41,42,42,47,47,51,51,54,54,55,55,58,58,59,59,62,62,63,63,65,65,66,66,71,71,72,72,73,73,81,81,83,83,87,87],"right_children":[2,4,6,8,10,12,14,16,18,20,22,24,-1,-1,26,28,30,32,34,36,38,40,42,44,-1,-1,-1,46,48,-1,-1,50,52,-1,-1,54,56,58,60,62,64,66,68,-1,-1,-1,-1,70,-1,-1,-1,72,-1,-1,74,76,-1,-1,78,80,-1,-1,82,84,-1,86,88,-1,-1,-1,-1,90,92,94,-1,-1,-1,-1,-1,-1,-1,96,-1,98,-1,-1,-1,100,-1,-1,-1,-1,-1,-1,-1,-1,-1,-1,-1,-1,-1],"split_conditions":[-1.6280702E-1,1.7238474E9,1.7197578E9,-9.6611124E-1,-9.233296E-1,-8.89864E-1,1.720458E9,-9.781476E-1,1.722888E9,1.7263188E9,-8.085952E-1,-9.4698775E-1,6.423818E1,1.3831477E2,-9.8751944E-1,-9.85097E-1,-9.741005E-1,-9.0580195E-1,9.35E1,-9.342215E-1,1.103E1,1.725471E9,1.5338E1,-7.0710677E-1,1.157806E2,9.920996E1,5.0718594E1,-6.8835455E-1,2.5916E1,-4.3128735E1,-6.985502E1,1.7214173E9,1.7227026E9,-1.5898857E2,-7.220626E1,8.831E0,1.7257284E9,6.317E0,0E0,1.7245116E9,-9.1456366E-1,6.234898E-1,6.087614E-1,8.200911E1,9.5867E1,-8.840921E0,2.2771835E0,1.6731E1,-3.6919678E1,-1.1577013E2,-1.6910408E2,-8.760647E-1,-1.23736275E2,-2.4902012E1,-9.4664156E-1,1.8394E1,-2.899117E1,1.4196778E1,7.933533E-1,-9.6775734E-1,-5.162193E-2,1.9494204E1,-8.5710573E-1,2.3362E1,3.4062817E1,1.2383E1,1.3574E1,-4.138311E1,-1.9149881E1,-9.30959E0,-2.198992E1,-8.92952E-1,-5.2494264E-1,7.41E1,-4.7078167E1,-7.809645E0,-1.8377188E1,2.9710495E0,9.142517E0,-4.8752236E0,-1.1471784E1,2.2019E1,8.0602455E1,1.7255808E9,-2.876333E0,-1.5984161E1,-2.8430563E1,1.098E1,-1.2674641E1,-8.76443E1,-1.19075874E2,-8.729051E1,-5.6675556E1,-6.851658E1,-5.2937E1,6.5259834E1,5.021523E1,2.4591759E1,1.3924577E1,1.9661132E-1,-4.7077336E0],"split_indices":[11,7,7,12,11,12,7,12,7,7,11,12,0,0,12,12,12,12,1,11,3,7,3,9,0,0,0,4,0,0,0,7,7,0,0,0,7,0,9,7,11,14,9,0,0,0,0,0,0,0,0,12,0,0,11,0,0,0,9,11,0,0,11,0,0,3,0,0,0,0,0,12,11,1,0,0,0,0,0,0,0,0,0,7,0,0,0,0,0,0,0,0,0,0,0,0,0,0,0,0,0],"split_type":[0,0,0,0,0,0,0,0,0,0,0,0,0,0,0,0,0,0,0,0,0,0,0,0,0,0,0,0,0,0,0,0,0,0,0,0,0,0,0,0,0,0,0,0,0,0,0,0,0,0,0,0,0,0,0,0,0,0,0,0,0,0,0,0,0,0,0,0,0,0,0,0,0,0,0,0,0,0,0,0,0,0,0,0,0,0,0,0,0,0,0,0,0,0,0,0,0,0,0,0,0],"sum_hessian":[4.998E3,3.131E3,1.867E3,1.744E3,1.387E3,1.441E3,4.26E2,2.6E2,1.484E3,4.23E2,9.64E2,1.257E3,1.84E2,3.65E2,6.1E1,1.23E2,1.37E2,9.73E2,5.11E2,3.44E2,7.9E1,6.23E2,3.41E2,8.64E2,3.93E2,4.5E1,1.6E1,2.5E1,9.8E1,4.9E1,8.8E1,4.64E2,5.09E2,4.94E2,1.7E1,2.73E2,7.1E1,3.7E1,4.2E1,5.26E2,9.7E1,1.77E2,1.64E2,2.01E2,6.63E2,1E1,1.5E1,6.1E1,3.7E1,1.86E2,2.78E2,4.08E2,1.01E2,1.6E1,2.57E2,3.5E1,3.6E1,1.2E1,2.5E1,2.9E1,1.3E1,1.8E1,5.08E2,5.9E1,3.8E1,1.13E2,6.4E1,1.41E2,2.3E1,2E1,4.1E1,1.8E2,2.28E2,1.69E2,8.8E1,2.3E1,1.2E1,1.1E1,1.4E1,1.3E1,1.6E1,2.97E2,2.11E2,4.2E1,1.7E1,3.8E1,7.5E1,3.2E1,3.2E1,8.1E1,9.9E1,9.5E1,1.33E2,7.6E1,9.3E1,2.23E2,7.4E1,1.1E1,3.1E1,1.3E1,1.9E1],"tree_param":{"num_deleted":"0","num_feature":"17","num_nodes":"101","size_leaf_vector":"1"}},{"base_weights":[3.8341177E-1,-3.5664813E2,5.918287E2,5.0218708E1,-6.7929816E2,5.4335297E2,7.488591E2,-2.210552E2,1.730854E2,-2.4559108E2,-7.5415027E2,5.69186E2,5.56247E1,1.1803155E2,5.1566156E2,-2.7300958E2,8.971071E0,3.4866718E2,-1.6164061E2,-1.2344763E2,-3.498153E2,-8.80814E2,-6.814352E2,5.2665375E2,9.933842E1,8.568901E1,4.4200264E1,-3.1231027E2,-1.267412E2,5.768384E1,-4.2593243E1,3.902231E2,1.25100815E2,-1.2077411E2,-2.3809401E2,-1.5238342E1,-1.5013023E2,-3.6714542E1,-5.9831745E1,-1.3448328E2,-6.119032E1,-8.356949E2,-5.2620795E2,7.061315E1,8.207121E1,-2.2413864E1,-3.2138867E2,-7.1880104E1,-1.6960513E2,1.2919206E1,3.8035522E1,-1.0454047E1,-1.83788E1,2.0657604E1,3.9889224E2,7.041992E1,1.944366E2,-1.5615369E2,-5.4927193E1,-3.7256268E1,-2.1394846E1,-7.6180425E0,1.8596373E0,-1.0537576E2,-3.2055313E1,-6.820705E2,-1.4773103E2,-6.000299E2,-3.391552E2,-3.4506622E2,-3.969548E1,-6.619835E0,-1.6032242E1,-1.8929764E1,-3.262476E1,1.1747013E0,7.7383847E0,7.1066596E-2,-4.606962E0,3.4025018E2,6.677276E1,1.0459335E2,-2.5034626E0,3.235294E1,1.4701711E1,-1.2963947E2,-3.2811234E1,-2.4579605E1,-8.525726E1,-8.077291E0,-1.8888826E1,-8.525421E1,-1.1315821E2,-5.360707E2,-6.649546E2,-5.8559814E1,-2.785436E2,-5.837632E1,-4.5224457E1,5.2310276E1,2.7833033E1,9.839324E0,1.8678759E1,-1.4157954E2,-6.3397446E0,8.552307E-2,-3.3937153E1,-1.4578292E1,-5.940404E0,-8.949191E1,-6.911657E1,-1.0354547E2,-5.8238712E1,-4.6985397E1,-2.8621582E1,-1.3928332E1,-2.2669662E1,-1.6413338E0,-6.4118705E0],"categories":[],"categories_nodes":[],"categories_segments":[],"categories_sizes":[],"default_left":[0,0,0,0,0,0,0,0,0,0,0,0,0,0,0,0,0,0,0,0,0,0,0,0,0,0,0,0,0,0,0,0,0,0,0,0,0,0,0,0,0,0,0,0,0,0,0,0,0,0,0,0,0,0,0,0,0,0,0,0,0,0,0,0,0,0,0,0,0,0,0,0,0,0,0,0,0,0,0,0,0,0,0,0,0,0,0,0,0,0,0,0,0,0,0,0,0,0,0,0,0,0,0,0,0,0,0,0,0,0,0,0,0,0,0,0,0,0,0],"id":1,"left_children":[1,3,5,7,9,11,13,15,17,19,21,23,-1,-1,25,27,29,31,33,35,37,39,41,43,-1,-1,-1,45,47,49,51,53,55,57,59,61,63,-1,-1,-1,-1,65,67,-1,-1,-1,69,71,73,-1,75,-1,77,-1,79,81,83,85,87,-1,-1,-1,-1,89,-1,91,-1,93,95,97,-1,-1,-1,-1,-1,-1,-1,-1,-1,99,-1,101,-1,-1,-1,103,-1,105,107,-1,-1,-1,-1,109,111,-1,113,-1,-1,-1,-1,-1,-1,115,-1,-1,117,-1,-1,-1,-1,-1,-1,-1,-1,-1,-1,-1,-1],"loss_changes":[1.0628861E9,4.121324E8,1.3311296E7,4.645757E7,5.6328064E7,5.956992E6,2.583568E6,5.202748E6,5.6499852E7,3.212867E6,1.210048E7,3.95952E6,0E0,0E0,3.42288E5,1.930066E6,2.1451972E5,5.71604E6,9.571E5,3.5340788E5,4.4293E5,2.405696E6,2.1779616E7,2.53264E5,0E0,0E0,0E0,2.79878E5,1.5358388E5,1.4990781E4,2.3465375E4,1.010472E6,3.5141388E5,4.925725E5,7.0225E3,2.8918646E4,2.1917875E5,0E0,0E0,0E0,0E0,8.909184E6,6.150352E6,0E0,0E0,0E0,1.04836E5,2.5221703E4,1.3096875E4,0E0,1.1196633E4,0E0,6.0686045E3,0E0,9.37312E5,1.8864116E5,2.9299E4,1.5668525E5,6.919936E4,0E0,0E0,0E0,0E0,4.7698688E4,0E0,7.9384E5,0E0,4.5744E5,1.40339E5,1.6096E4,0E0,0E0,0E0,0E0,0E0,0E0,0E0,0E0,0E0,9.8136E4,0E0,1.1677719E4,0E0,0E0,0E0,9.4699875E4,0E0,1.0673018E4,1.0410281E4,0E0,0E0,0E0,0E0,9.9412E4,3.15904E5,0E0,6.0017E4,0E0,0E0,0E0,0E0,0E0,0E0,2.873875E3,0E0,0E0,5.131789E3,0E0,0E0,0E0,0E0,0E0,0E0,0E0,0E0,0E0,0E0,0E0,0E0],"parents":[2147483647,0,0,1,1,2,2,3,3,4,4,5,5,6,6,7,7,8,8,9,9,10,10,11,11,14,14,15,15,16,16,17,17,18,18,19,19,20,20,21,21,22,22,23,23,27,27,28,28,29,29,30,30,31,31,32,32,33,33,34,34,35,35,36,36,41,41,42,42,46,46,47,47,48,48,50,50,52,52,54,54,55,55,56,56,57,57,58,58,63,63,65,65,67,67,68,68,69,69,79,79,81,81,85,85,87,87,88,88,93,93,94,94,96,96,103,103,106,106],"right_children":[2,4,6,8,10,12,14,16,18,20,22,24,-1,-1,26,28,30,32,34,36,38,40,42,44,-1,-1,-1,46,48,50,52,54,56,58,60,62,64,-1,-1,-1,-1,66,68,-1,-1,-1,70,72,74,-1,76,-1,78,-1,80,82,84,86,88,-1,-1,-1,-1,90,-1,92,-1,94,96,98,-1,-1,-1,-1,-1,-1,-1,-1,-1,100,-1,102,-1,-1,-1,104,-1,106,108,-1,-1,-1,-1,110,112,-1,114,-1,-1,-1,-1,-1,-1,116,-1,-1,118,-1,-1,-1,-1,-1,-1,-1,-1,-1,-1,-1,-1],"split_conditions":[-1.6280702E-1,-7.2882134E-1,1.7197578E9,-9.233296E-1,-9.6611124E-1,-8.9149445E-1,-9.902348E-1,1.7263188E9,-8.085952E-1,-9.781476E-1,-5.793396E-1,-9.4698775E-1,5.56247E1,1.1803155E2,-9.8751944E-1,-9.342215E-1,1.134E1,-4.1784534E-1,1.7202E1,-9.85097E-1,-9.741005E-1,9.35E1,-9.0580195E-1,-6.087614E-1,9.933842E1,8.568901E1,4.4200264E1,8.831E0,1.7257284E9,6.317E0,-7.0710677E-1,1.7245116E9,-9.1456366E-1,6.234898E-1,1.988E0,-3.8268343E-1,2.5916E1,-3.6714542E1,-5.9831745E1,-1.3448328E2,-6.119032E1,-9.397335E-1,4.3388373E-1,7.061315E1,8.207121E1,-2.2413864E1,-9.4664156E-1,1.8394E1,2.0735E1,1.2919206E1,6.087614E-1,-1.0454047E1,1.4053E1,2.0657604E1,-8.6834705E-1,2.3362E1,2.3473E1,9.3133E1,1.4259E1,-3.7256268E1,-2.1394846E1,-7.6180425E0,1.8596373E0,1.6731E1,-3.2055313E1,-9.560247E-1,-1.4773103E2,6.234898E-1,0E0,7.41E1,-3.969548E1,-6.619835E0,-1.6032242E1,-1.8929764E1,-3.262476E1,1.1747013E0,7.7383847E0,7.1066596E-2,-4.606962E0,2.8278E1,6.677276E1,6.255E1,-2.5034626E0,3.235294E1,1.4701711E1,8.535E1,-3.2811234E1,1.1218E1,1E0,-8.077291E0,-1.8888826E1,-8.525421E1,-1.1315821E2,1.2246469E-16,8.4183E1,-5.8559814E1,9.749279E-1,-5.837632E1,-4.5224457E1,5.2310276E1,2.7833033E1,9.839324E0,1.8678759E1,1.2325E1,-6.3397446E0,8.552307E-2,-8.660254E-1,-1.4578292E1,-5.940404E0,-8.949191E1,-6.911657E1,-1.0354547E2,-5.8238712E1,-4.6985397E1,-2.8621582E1,-1.3928332E1,-2.2669662E1,-1.6413338E0,-6.4118705E0],"split_indices":[11,11,7,11,12,12,12,7,11,12,11,12,0,0,12,11,3,12,3,12,12,1,12,9,0,0,0,0,7,0,9,7,11,14,2,10,0,0,0,0,0,12,13,0,0,0,11,0,3,0,9,0,0,0,11,0,0,1,0,0,0,0,0,0,0,12,0,14,9,1,0,0,0,0,0,0,0,0,0,3,0,1,0,0,0,1,0,0,14,0,0,0,0,9,1,0,13,0,0,0,0,0,0,0,0,0,10,0,0,0,0,0,0,0,0,0,0,0,0],"split_type":[0,0,0,0,0,0,0,0,0,0,0,0,0,0,0,0,0,0,0,0,0,0,0,0,0,0,0,0,0,0,0,0,0,0,0,0,0,0,0,0,0,0,0,0,0,0,0,0,0,0,0,0,0,0,0,0,0,0,0,0,0,0,0,0,0,0,0,0,0,0,0,0,0,0,0,0,0,0,0,0,0,0,0,0,0,0,0,0,0,0,0,0,0,0,0,0,0,0,0,0,0,0,0,0,0,0,0,0,0,0,0,0,0,0,0,0,0,0,0],"sum_hessian":[5.028E3,3.136E3,1.892E3,1.388E3,1.748E3,1.455E3,4.37E2,4.32E2,9.56E2,2.59E2,1.489E3,1.261E3,1.94E2,3.73E2,6.4E1,3.52E2,8E1,6.27E2,3.29E2,1.22E2,1.37E2,5.32E2,9.57E2,8.73E2,3.88E2,4.8E1,1.6E1,2.75E2,7.7E1,4.1E1,3.9E1,5.27E2,1E2,2.19E2,1.1E2,2.5E1,9.7E1,4.8E1,8.9E1,5.15E2,1.7E1,4.74E2,4.83E2,2.36E2,6.37E2,1.7E1,2.58E2,3.7E1,4E1,1.3E1,2.8E1,1.6E1,2.3E1,1.9E1,5.08E2,5.9E1,4.1E1,1.4E2,7.9E1,9.6E1,1.4E1,1E1,1.5E1,6.1E1,3.6E1,2.39E2,2.35E2,3.42E2,1.41E2,1.73E2,8.5E1,2.4E1,1.3E1,2.6E1,1.4E1,1E1,1.8E1,1E1,1.3E1,2.31E2,2.77E2,4.2E1,1.7E1,3.1E1,1E1,1.04E2,3.6E1,4.2E1,3.7E1,2E1,4.1E1,1E2,1.39E2,1.85E2,1.57E2,6.9E1,7.2E1,7.7E1,9.6E1,2.17E2,1.4E1,1.8E1,2.4E1,9E1,1.4E1,1.2E1,3E1,2.7E1,1E1,9.4E1,9.1E1,1.41E2,1.6E1,4.7E1,2.5E1,1.9E1,7.1E1,1E1,2E1],"tree_param":{"num_deleted":"0","num_feature":"17","num_nodes":"119","size_leaf_vector":"1"}},{"base_weights":[1.6961353E0,-3.0209082E2,5.030765E2,-5.795347E2,4.318149E1,6.414764E2,4.6148837E2,-2.1031065E2,-6.435226E2,1.4831354E2,-1.8931833E2,6.696853E2,4.1376385E2,4.8320642E2,4.7388187E1,-1.0742578E2,-3.0005225E2,-7.6192163E2,-5.8652716E2,2.985324E2,-1.3684142E2,-2.3300912E2,8.200459E0,1.0417341E2,8.189693E1,6.945302E1,2.9716837E1,4.539268E2,8.6804886E1,-7.130014E1,-1.7299763E2,-3.1687134E1,-3.414279E2,-1.1844321E2,-5.4073584E2,-7.137356E2,-4.6919156E2,3.342795E2,1.0958107E2,-9.033287E1,-1.8564375E2,-2.6744287E2,-1.0777125E2,4.4728657E1,-4.731875E1,5.8425846E1,7.0298325E1,1.8621026E0,-9.567783E1,-2.8849043E1,-1.5266589E1,-3.9898396E1,-5.7999912E1,-4.3804844E1,-8.7591705E1,-5.840498E2,-1.2602445E2,-4.1581912E2,-9.197411E1,1.6365213E1,3.4115805E2,6.198325E1,1.6960017E2,-1.2052758E2,-3.6846104E1,-1.989655E2,-1.4220124E1,-1.7707178E1,-2.7532858E2,-6.2246563E1,-1.433951E2,1.0515874E1,2.3545784E1,-1.05500145E1,-3.555103E0,-6.5007434E0,-1.140341E2,-9.624919E1,-7.208373E1,-4.84656E2,-2.8817566E2,3.6627322E2,2.6308054E2,8.855689E1,-2.847302E0,2.8089226E1,1.29639015E1,-8.401813E0,-1.3210576E2,-1.1839341E1,-6.101717E1,-2.2133673E2,-1.5960883E2,-5.07083E1,-2.5371492E2,-6.102077E0,-1.4531496E1,-1.6411882E1,-2.7872763E1,-1.4949802E0,6.0666685E0,-1.9722166E1,-1.1185506E1,-7.911521E1,-6.110535E1,-4.8899002E1,-2.3884882E2,7.133946E1,5.2665955E1,4.282374E1,3.0661179E1,1.976297E1,6.5898285E1,-2.191687E1,-1.1798948E1,-3.6053748E0,2.682062E-1,-1.1946208E1,-5.5390644E0,-3.54958E1,-1.9956661E1,-1.0882425E1,-2.6348839E1,-3.0029692E1,-4.1571728E1,-3.9894875E1,-2.4418715E1,1.1332133E1,4.769378E0],"categories":[],"categories_nodes":[],"categories_segments":[],"categories_sizes":[],"default_left":[0,0,0,0,0,0,0,0,0,0,0,0,0,0,0,0,0,0,0,0,0,0,0,0,0,0,0,0,0,0,0,0,0,0,0,0,0,0,0,0,0,0,0,0,0,0,0,0,0,0,0,0,0,0,0,0,0,0,0,0,0,0,0,0,0,0,0,0,0,0,0,0,0,0,0,0,0,0,0,0,0,0,0,0,0,0,0,0,0,0,0,0,0,0,0,0,0,0,0,0,0,0,0,0,0,0,0,0,0,0,0,0,0,0,0,0,0,0,0,0,0,0,0,0,0,0,0,0,0],"id":2,"left_children":[1,3,5,7,9,11,13,15,17,19,21,23,25,27,-1,29,31,33,35,37,39,41,43,-1,-1,-1,-1,45,-1,47,49,-1,51,-1,53,55,57,59,61,63,65,67,69,71,73,-1,-1,-1,75,-1,-1,-1,-1,-1,-1,77,-1,79,-1,-1,81,83,85,87,89,91,-1,-1,93,95,97,-1,99,-1,-1,-1,101,-1,-1,103,105,107,109,111,-1,-1,-1,-1,113,115,117,119,121,-1,123,-1,-1,-1,-1,-1,-1,-1,-1,-1,-1,-1,125,-1,-1,-1,-1,-1,127,-1,-1,-1,-1,-1,-1,-1,-1,-1,-1,-1,-1,-1,-1,-1,-1],"loss_changes":[7.665056E8,3.002606E8,1.0119456E7,4.0684224E7,3.4265572E7,2.0156E6,4.255712E6,2.31833E6,8.7648E6,4.1436228E7,3.774659E6,6.2288E4,3.18093E5,2.791744E6,0E0,2.6352712E5,3.11698E5,1.513184E6,1.4170912E7,4.172684E6,7.13274E5,1.463092E6,1.714906E5,0E0,0E0,0E0,0E0,3.73792E5,0E0,1.783376E5,3.64325E3,0E0,2.1689E4,0E0,1.35956E5,6.393248E6,3.360472E6,7.20696E5,2.6988038E5,2.7286562E5,1.429615E5,2.3963E5,1.0764006E5,2.23195E4,1.3447359E4,0E0,0E0,0E0,5.036825E4,0E0,0E0,0E0,0E0,0E0,0E0,5.89712E5,0E0,3.103328E6,0E0,0E0,7.43196E5,1.396342E5,1.9438625E4,6.30055E4,3.875778E4,2.39735E4,0E0,0E0,1.16582E5,1.9270469E4,6.9198125E3,0E0,1.9019152E4,0E0,0E0,0E0,5.225375E3,0E0,0E0,2.38472E5,5.268E4,2.0866E5,1.3369E4,2.2193406E4,0E0,0E0,0E0,0E0,3.60165E4,6.2505757E3,6.721086E3,1.8756E4,4.60265E4,0E0,1.0081E5,0E0,0E0,0E0,0E0,0E0,0E0,0E0,0E0,0E0,0E0,0E0,2.8475E4,0E0,0E0,0E0,0E0,0E0,5.052797E3,0E0,0E0,0E0,0E0,0E0,0E0,0E0,0E0,0E0,0E0,0E0,0E0,0E0,0E0,0E0,0E0],"parents":[2147483647,0,0,1,1,2,2,3,3,4,4,5,5,6,6,7,7,8,8,9,9,10,10,11,11,12,12,13,13,15,15,16,16,17,17,18,18,19,19,20,20,21,21,22,22,27,27,29,29,30,30,32,32,34,34,35,35,36,36,37,37,38,38,39,39,40,40,41,41,42,42,43,43,44,44,48,48,55,55,57,57,60,60,61,61,62,62,63,63,64,64,65,65,68,68,69,69,70,70,72,72,76,76,79,79,80,80,81,81,82,82,83,83,88,88,89,89,90,90,91,91,92,92,94,94,106,106,112,112],"right_children":[2,4,6,8,10,12,14,16,18,20,22,24,26,28,-1,30,32,34,36,38,40,42,44,-1,-1,-1,-1,46,-1,48,50,-1,52,-1,54,56,58,60,62,64,66,68,70,72,74,-1,-1,-1,76,-1,-1,-1,-1,-1,-1,78,-1,80,-1,-1,82,84,86,88,90,92,-1,-1,94,96,98,-1,100,-1,-1,-1,102,-1,-1,104,106,108,110,112,-1,-1,-1,-1,114,116,118,120,122,-1,124,-1,-1,-1,-1,-1,-1,-1,-1,-1,-1,-1,126,-1,-1,-1,-1,-1,128,-1,-1,-1,-1,-1,-1,-1,-1,-1,-1,-1,-1,-1,-1,-1,-1],"split_conditions":[-1.6280702E-1,1.7238474E9,-1.7931456E-3,-9.6611124E-1,1.7256547E9,2.7364E1,-8.9149445E-1,-9.781476E-1,-5.973184E-1,-8.085952E-1,1.7263188E9,-9.926188E-1,1.7204957E9,-9.357479E-1,4.7388187E1,2.4768E1,-9.741005E-1,7.855E1,-9.0580195E-1,-4.1784534E-1,1.5338E1,-9.342215E-1,1.2383E1,1.0417341E2,8.189693E1,6.945302E1,2.9716837E1,-7.933533E-1,8.6804886E1,-9.85097E-1,2.9083E1,-3.1687134E1,2.1789E1,-1.1844321E2,-7.0710677E-1,-9.397335E-1,1.7227026E9,1.7245116E9,-9.1456366E-1,6.234898E-1,6.087614E-1,8.831E0,1.7257284E9,7.764E0,-7.0710677E-1,5.8425846E1,7.0298325E1,1.8621026E0,1.6731E1,-2.8849043E1,-1.5266589E1,-3.9898396E1,-5.7999912E1,-4.3804844E1,-8.7591705E1,-2.9054207E-1,-1.2602445E2,4.3388373E-1,-9.197411E1,1.6365213E1,1.7252118E9,2.3362E1,2.3473E1,1.1303E1,1.3653E1,6.234898E-1,-1.4220124E1,-1.7707178E1,5.8183E1,1.9564E1,2.0735E1,1.0515874E1,2.5881904E-1,-1.05500145E1,-3.555103E0,-6.5007434E0,-1.8435085E-1,-9.624919E1,-7.208373E1,7.0710677E-1,1.2246469E-16,1.7245836E9,5.2335955E-2,1.7255808E9,-2.847302E0,2.8089226E1,1.29639015E1,-8.401813E0,7.818315E-1,1E0,1.247618E-1,1.7244378E9,1.9249E1,-5.07083E1,1.7259858E9,-6.102077E0,-1.4531496E1,-1.6411882E1,-2.7872763E1,-1.4949802E0,6.0666685E0,-1.9722166E1,-1.1185506E1,-7.911521E1,-6.110535E1,-4.8899002E1,9.749279E-1,7.133946E1,5.2665955E1,4.282374E1,3.0661179E1,1.976297E1,1.6794E1,-2.191687E1,-1.1798948E1,-3.6053748E0,2.682062E-1,-1.1946208E1,-5.5390644E0,-3.54958E1,-1.9956661E1,-1.0882425E1,-2.6348839E1,-3.0029692E1,-4.1571728E1,-3.9894875E1,-2.4418715E1,1.1332133E1,4.769378E0],"split_indices":[11,7,11,12,7,0,12,12,11,11,7,12,7,12,0,3,12,1,12,12,3,11,3,0,0,0,0,9,0,12,1,0,0,0,9,12,7,7,11,14,9,0,7,0,9,0,0,0,0,0,0,0,0,0,0,11,0,13,0,0,7,0,0,0,3,14,0,0,1,0,3,0,9,0,0,0,11,0,0,5,9,7,4,7,0,0,0,0,13,14,5,7,0,0,7,0,0,0,0,0,0,0,0,0,0,0,13,0,0,0,0,0,0,0,0,0,0,0,0,0,0,0,0,0,0,0,0,0,0],"split_type":[0,0,0,0,0,0,0,0,0,0,0,0,0,0,0,0,0,0,0,0,0,0,0,0,0,0,0,0,0,0,0,0,0,0,0,0,0,0,0,0,0,0,0,0,0,0,0,0,0,0,0,0,0,0,0,0,0,0,0,0,0,0,0,0,0,0,0,0,0,0,0,0,0,0,0,0,0,0,0,0,0,0,0,0,0,0,0,0,0,0,0,0,0,0,0,0,0,0,0,0,0,0,0,0,0,0,0,0,0,0,0,0,0,0,0,0,0,0,0,0,0,0,0,0,0,0,0,0,0],"sum_hessian":[5.027E3,3.131E3,1.896E3,1.735E3,1.396E3,4.29E2,1.467E3,2.58E2,1.477E3,9.62E2,4.34E2,3.77E2,5.2E1,1.272E3,1.95E2,1.23E2,1.35E2,4.69E2,1.008E3,6.3E2,3.32E2,3.55E2,7.9E1,3.08E2,6.9E1,4E1,1.2E1,9.82E2,2.9E2,8.3E1,4E1,4.8E1,8.7E1,4.14E2,5.5E1,4.77E2,5.31E2,5.28E2,1.02E2,1.74E2,1.58E2,2.76E2,7.9E1,4.8E1,3.1E1,1.82E2,8E2,1.9E1,6.4E1,2.8E1,1.2E1,3.9E1,4.8E1,1.1E1,4.4E1,2.41E2,2.36E2,3.94E2,1.37E2,1.7E1,5.11E2,6E1,4.2E1,1.09E2,6.5E1,1.35E2,2.3E1,1.6E1,2.6E2,3.8E1,4.1E1,1.9E1,2.9E1,1.3E1,1.8E1,1.9E1,4.5E1,1.48E2,9.3E1,2.51E2,1.43E2,3.79E2,1.32E2,4.5E1,1.5E1,3.2E1,1E1,1.9E1,9E1,3.4E1,3.1E1,7.8E1,5.7E1,5.7E1,2.03E2,2.7E1,1.1E1,2.8E1,1.3E1,1E1,1.9E1,2.7E1,1.8E1,1.54E2,9.7E1,7.3E1,7E1,3.9E1,3.4E2,8.9E1,4.3E1,1.1E1,3.4E1,6.8E1,2.2E1,1.7E1,1.7E1,1.4E1,1.7E1,6.3E1,1.5E1,1.1E1,4.6E1,6.8E1,1.35E2,4.7E1,2.3E1,2.4E1,1E1],"tree_param":{"num_deleted":"0","num_feature":"17","num_nodes":"129","size_leaf_vector":"1"}},{"base_weights":[-7.315713E-1,-2.5835098E2,4.2779233E2,3.563814E1,-4.9242307E2,3.9134607E2,5.422201E2,-1.6293925E2,1.2558277E2,-1.8053488E2,-5.4625055E2,4.0959915E2,2.6461923E2,8.659191E1,4.2854202E2,-2.014512E2,7.531718E0,2.5421194E2,-1.19621315E2,-9.149988E1,-2.5583556E2,-4.9770187E2,-6.4901337E2,3.744083E2,7.079229E1,3.0504087E1,4.1886894E1,6.787074E1,3.565182E1,-2.2918208E2,-9.626412E1,3.976973E1,-4.006905E1,2.8389673E2,9.436664E1,-9.1879265E1,-1.8162428E2,-6.166737E1,-1.5498428E2,-4.3492466E1,-2.5560562E1,-6.0808325E2,-3.9973145E2,-9.925721E1,-4.635174E1,6.439702E1,3.6056912E2,-4.311893E1,-2.1119853E2,-6.7673416E1,-2.3259523E1,1.0016174E1,2.4524069E1,-2.1948647E1,-9.509764E0,2.6878406E2,6.0404114E1,5.4695747E1,1.465273E2,-1.1789308E2,-4.3749786E1,-3.1612478E1,-1.4523692E2,8.156684E0,-8.368937E1,-1.6770908E1,-3.038946E1,-5.128476E2,-1.10619774E2,-7.835034E1,-3.5553156E2,4.341299E1,3.7964447E2,-2.5898638E1,-2.2934682E2,-5.3860917E0,-1.4183026E1,-7.454581E-1,3.616892E1,-4.609839E0,-1.1485555E0,8.9967394E-1,2.7667685E2,8.7212395E1,1.8966762E0,2.4312576E1,1.1431508E1,-6.936539E1,-1.3610355E2,-6.239122E0,-5.6977074E1,-2.3702477E1,-1.1820736E1,-1.3856751E0,3.8158605E0,-5.449063E1,-1.7134071E1,-6.1860703E1,-8.4268135E1,-4.4178915E2,-2.8637885E2,6.243261E1,5.2221634E1,-3.58252E1,-1.6150345E1,7.4685493E0,1.5742779E0,2.101134E2,2.9226727E2,1.6973366E1,9.638008E0,-3.652024E0,3.2601695E0,-5.383386E0,-7.577416E1,-2.2982803E1,-1.3960253E1,-2.3112724E0,6.8935895E-1,-6.860633E1,-4.1577144E0,1.5060542E0,-1.2067835E1,-5.3558865E1,-7.5716194E1,-5.9878788E1,-2.4464754E2,3.3550655E1,2.0545313E1,4.543066E1,3.34321E1,-7.395501E0,-1.3800679E1,-5.6799407E0,-1.2186187E1,-4.4660534E1,-3.305868E1],"categories":[],"categories_nodes":[],"categories_segments":[],"categories_sizes":[],"default_left":[0,0,0,0,0,0,0,0,0,0,0,0,0,0,0,0,0,0,0,0,0,0,0,0,0,0,0,0,0,0,0,0,0,0,0,0,0,0,0,0,0,0,0,0,0,0,0,0,0,0,0,0,0,0,0,0,0,0,0,0,0,0,0,0,0,0,0,0,0,0,0,0,0,0,0,0,0,0,0,0,0,0,0,0,0,0,0,0,0,0,0,0,0,0,0,0,0,0,0,0,0,0,0,0,0,0,0,0,0,0,0,0,0,0,0,0,0,0,0,0,0,0,0,0,0,0,0,0,0,0,0,0,0,0,0,0,0],"id":3,"left_children":[1,3,5,7,9,11,13,15,17,19,21,23,25,-1,27,29,31,33,35,37,39,41,43,45,-1,-1,-1,-1,-1,47,49,51,53,55,57,59,61,63,65,-1,-1,67,69,-1,-1,-1,71,-1,73,75,-1,-1,77,79,-1,81,-1,83,85,87,89,-1,91,93,95,-1,-1,97,-1,-1,99,-1,101,-1,103,-1,-1,-1,105,-1,-1,-1,107,109,111,-1,-1,113,115,117,119,-1,-1,-1,-1,121,-1,-1,-1,123,125,-1,-1,-1,-1,-1,-1,127,129,-1,-1,-1,-1,-1,131,-1,-1,-1,-1,133,-1,-1,-1,-1,-1,-1,135,-1,-1,-1,-1,-1,-1,-1,-1,-1,-1],"loss_changes":[5.535749E8,2.155575E8,7.27136E6,2.4895264E7,2.9003296E7,3.028624E6,1.03348E6,2.858719E6,3.0321684E7,1.683252E6,6.52944E6,2.21024E6,6.905E3,0E0,1.97896E5,9.73694E5,1.3128067E5,2.913984E6,5.24369E5,2.07672E5,2.65145E5,1.0373472E7,1.194496E6,1.78632E5,0E0,0E0,0E0,0E0,0E0,1.22068E5,1.0229931E5,1.6039508E4,1.0551121E4,6.46804E5,1.9015938E5,2.7937175E5,1.955575E4,1.3850197E5,1.49515E4,0E0,0E0,4.732272E6,2.433888E6,0E0,0E0,0E0,6.04496E5,0E0,4.8898E4,3.9410844E4,0E0,0E0,1.3184934E4,2.2074717E3,0E0,9.85592E5,0E0,1.0697878E5,1.14565625E4,1.06898375E5,4.1878938E4,0E0,9.048875E3,7.7775747E3,4.2412188E4,0E0,0E0,7.22768E5,0E0,0E0,2.103352E6,0E0,1.94992E5,0E0,8.4801E4,0E0,0E0,0E0,7.6780664E3,0E0,0E0,0E0,3.12576E5,2.7660625E3,1.5265218E4,0E0,0E0,2.3453594E3,3.7880625E4,2.76444E3,1.6294281E4,0E0,0E0,0E0,0E0,6.837754E4,0E0,0E0,0E0,4.48232E5,8.3249E5,0E0,0E0,0E0,0E0,0E0,0E0,9.195E3,6.894E4,0E0,0E0,0E0,0E0,0E0,2.9278438E3,0E0,0E0,0E0,0E0,8.0774375E3,0E0,0E0,0E0,0E0,0E0,0E0,5.2918E4,0E0,0E0,0E0,0E0,0E0,0E0,0E0,0E0,0E0,0E0],"parents":[2147483647,0,0,1,1,2,2,3,3,4,4,5,5,6,6,7,7,8,8,9,9,10,10,11,11,12,12,14,14,15,15,16,16,17,17,18,18,19,19,20,20,21,21,22,22,23,23,29,29,30,30,31,31,32,32,33,33,34,34,35,35,36,36,37,37,38,38,41,41,42,42,46,46,48,48,49,49,52,52,53,53,55,55,57,57,58,58,59,59,60,60,62,62,63,63,64,64,67,67,70,70,72,72,74,74,78,78,82,82,83,83,84,84,87,87,88,88,89,89,90,90,95,95,99,99,100,100,107,107,108,108,114,114,119,119,126,126],"right_children":[2,4,6,8,10,12,14,16,18,20,22,24,26,-1,28,30,32,34,36,38,40,42,44,46,-1,-1,-1,-1,-1,48,50,52,54,56,58,60,62,64,66,-1,-1,68,70,-1,-1,-1,72,-1,74,76,-1,-1,78,80,-1,82,-1,84,86,88,90,-1,92,94,96,-1,-1,98,-1,-1,100,-1,102,-1,104,-1,-1,-1,106,-1,-1,-1,108,110,112,-1,-1,114,116,118,120,-1,-1,-1,-1,122,-1,-1,-1,124,126,-1,-1,-1,-1,-1,-1,128,130,-1,-1,-1,-1,-1,132,-1,-1,-1,-1,134,-1,-1,-1,-1,-1,-1,136,-1,-1,-1,-1,-1,-1,-1,-1,-1,-1],"split_conditions":[-1.6280702E-1,-7.2882134E-1,1.71972E9,-9.233296E-1,-9.6611124E-1,-8.89864E-1,-9.926188E-1,1.7263188E9,-8.085952E-1,-9.781476E-1,1.7229618E9,-9.527051E-1,-7.0710677E-1,8.659191E1,-9.8751944E-1,-9.342215E-1,1.2383E1,-4.1784534E-1,1.7713E1,2.6028E1,5.0883E1,-9.0580195E-1,9.35E1,-9.9803126E-1,7.079229E1,3.0504087E1,4.1886894E1,6.787074E1,3.565182E1,5.8183E1,2.207E1,6.317E0,1.6535E1,9.755E1,-9.1456366E-1,6.234898E-1,-7.7261215E-1,-9.85097E-1,3.382E1,-4.3492466E1,-2.5560562E1,-9.3447715E-1,-5.5512285E-1,-9.925721E1,-4.635174E1,6.439702E1,-9.930895E-1,-4.311893E1,1.7259858E9,1.7257284E9,-2.3259523E1,1.0016174E1,-1.3052619E-1,9.7E-1,-9.509764E0,1.7245116E9,6.0404114E1,1.906E1,2.3473E1,1.2787E1,-7.933533E-1,-3.1612478E1,1.2246469E-16,-5.7357645E-1,1.7207172E9,-1.6770908E1,-3.038946E1,-9.560247E-1,-1.10619774E2,-7.835034E1,-8.760647E-1,4.341299E1,-9.796137E-1,-2.5898638E1,9.03E1,-5.3860917E0,-1.4183026E1,-7.454581E-1,1.7263926E9,-4.609839E0,-1.1485555E0,8.9967394E-1,-8.926289E-1,2.382E0,-8.660254E-1,2.4312576E1,1.1431508E1,1.0843E1,7.933533E-1,2.3909275E-1,1E0,-2.3702477E1,-1.1820736E1,-1.3856751E0,3.8158605E0,1.8135E1,-1.7134071E1,-6.1860703E1,-8.4268135E1,-8.92952E-1,-5.374004E-1,6.243261E1,5.2221634E1,-3.58252E1,-1.6150345E1,7.4685493E0,1.5742779E0,2.2893E1,2.1898E1,1.6973366E1,9.638008E0,-3.652024E0,3.2601695E0,-5.383386E0,6E-1,-2.2982803E1,-1.3960253E1,-2.3112724E0,6.8935895E-1,5.9E-1,-4.1577144E0,1.5060542E0,-1.2067835E1,-5.3558865E1,-7.5716194E1,-5.9878788E1,-6.087614E-1,3.3550655E1,2.0545313E1,4.543066E1,3.34321E1,-7.395501E0,-1.3800679E1,-5.6799407E0,-1.2186187E1,-4.4660534E1,-3.305868E1],"split_indices":[11,11,7,11,12,12,12,7,11,12,7,12,9,0,12,11,3,12,3,3,1,12,1,12,0,0,0,0,0,1,3,0,3,1,11,14,11,12,3,0,0,12,11,0,0,0,12,0,7,7,0,0,9,2,0,7,0,0,0,3,10,0,9,4,7,0,0,12,0,0,12,0,12,0,1,0,0,0,7,0,0,0,11,2,9,0,0,0,9,5,14,0,0,0,0,0,0,0,0,12,11,0,0,0,0,0,0,0,0,0,0,0,0,0,2,0,0,0,0,2,0,0,0,0,0,0,9,0,0,0,0,0,0,0,0,0,0],"split_type":[0,0,0,0,0,0,0,0,0,0,0,0,0,0,0,0,0,0,0,0,0,0,0,0,0,0,0,0,0,0,0,0,0,0,0,0,0,0,0,0,0,0,0,0,0,0,0,0,0,0,0,0,0,0,0,0,0,0,0,0,0,0,0,0,0,0,0,0,0,0,0,0,0,0,0,0,0,0,0,0,0,0,0,0,0,0,0,0,0,0,0,0,0,0,0,0,0,0,0,0,0,0,0,0,0,0,0,0,0,0,0,0,0,0,0,0,0,0,0,0,0,0,0,0,0,0,0,0,0,0,0,0,0,0,0,0,0],"sum_hessian":[5.009E3,3.129E3,1.88E3,1.388E3,1.741E3,1.435E3,4.45E2,4.32E2,9.56E2,2.58E2,1.483E3,1.249E3,1.86E2,3.35E2,1.1E2,3.52E2,8E1,6.27E2,3.29E2,1.21E2,1.37E2,1.018E3,4.65E2,8.05E2,4.44E2,4.2E1,1.44E2,9.5E1,1.5E1,2.76E2,7.6E1,4.8E1,3.2E1,5.27E2,1E2,2.32E2,9.7E1,8.6E1,3.5E1,9.4E1,4.3E1,4.72E2,5.46E2,4.48E2,1.7E1,1.48E2,6.57E2,5.6E1,2.2E2,5.5E1,2.1E1,1.4E1,3.4E1,2.1E1,1.1E1,4.75E2,5.2E1,6E1,4E1,1.48E2,8.4E1,4.7E1,5E1,2.1E1,6.5E1,2.3E1,1.2E1,2.78E2,1.94E2,1.38E2,4.08E2,1.47E2,5.1E2,7.9E1,1.41E2,2.8E1,2.7E1,1E1,2.4E1,1.1E1,1E1,1.4E1,4.61E2,3.6E1,2.4E1,3E1,1E1,4.4E1,1.04E2,2.3E1,6.1E1,3.9E1,1.1E1,1.1E1,1E1,3.7E1,2.8E1,9.7E1,1.81E2,1.75E2,2.33E2,2.28E2,2.82E2,1.29E2,1.2E1,1.4E1,1E1,9.5E1,3.66E2,1.2E1,2.4E1,1E1,1.4E1,1E1,3.4E1,7E1,3.4E1,1.2E1,1.1E1,4.1E1,2E1,1.1E1,2.6E1,8.1E1,9.4E1,5.7E1,1.76E2,7.6E1,1.9E1,3.13E2,5.3E1,1.7E1,1.7E1,1.5E1,2.6E1,4.7E1,1.29E2],"tree_param":{"num_deleted":"0","num_feature":"17","num_nodes":"137","size_leaf_vector":"1"}},{"base_weights":[-6.810073E-1,-2.2003783E2,3.6427515E2,-4.2074762E2,3.132284E1,3.344336E2,4.6720663E2,-1.26964806E2,-4.627158E2,-1.3810686E2,1.07234474E2,3.5045697E2,2.2767154E2,7.377529E1,2.9877234E2,-1.6398363E2,-5.8048794E1,-5.396326E2,-4.1512155E2,-1.7021437E2,5.4310694E0,2.1668124E2,-1.0146571E2,3.261535E2,6.2639484E1,2.6787489E1,3.630161E1,4.9968094E1,2.2799667E1,-1.3989716E2,-3.598813E1,-2.5319986E1,-1.7436255E1,-5.5442737E2,-3.8117612E2,-5.02371E2,-3.1345386E2,-9.202566E1,-1.9835574E2,4.0508793E1,-2.7512232E1,2.4184767E2,8.171008E1,-8.084494E1,-1.6542805E2,2.8778528E2,3.3974554E2,-2.386965E1,-1.5145875E1,-9.321946E0,1.6324865E0,-8.684186E1,-7.260105E1,-2.4076885E1,-6.29092E1,-3.6258746E2,-5.8122156E2,-3.592362E2,-2.1082272E2,-6.3962505E1,-2.1184982E1,-1.3176329E2,-2.1225641E2,8.938177E0,2.5693459E1,-7.3401313E0,-7.3323765E0,2.2944955E2,3.4501038E2,4.6007275E1,1.27773506E2,-2.241131E1,-6.682027E1,-1.3159001E2,-2.9483778E1,2.608039E1,4.4319168E1,3.257984E2,5.8272854E1,5.739617E0,-1.7231167E1,-4.5734978E1,-6.0995605E1,-7.74091E1,-9.811257E1,-3.913509E2,-4.470727E1,-3.652492E1,-1.7285136E2,-4.9910984E0,-1.2928292E1,-2.2465607E1,-7.9894E0,-3.758355E1,-2.8828106E1,1.7771331E0,5.3486857E0,-2.7701871E0,1.15992E0,7.863732E-1,2.3609598E2,5.8432175E1,3.4395123E1,6.8265564E1,-1.7744578E0,2.2067106E1,1.2176367E1,-4.031825E1,-8.625917E1,-2.2785875E1,-1.3160591E1,5.137346E1,3.7671192E1,-4.667421E0,-2.8874084E-1,-6.0911922E1,-4.1322693E1,-2.961017E1,-1.6812082E1,1.7820871E2,2.496597E2,1.6162773E1,4.733464E1,-1.5092134E1,-6.0160446E1,-5.2772E1,-1.04192696E2,2.7974499E1,1.2846245E1,3.8993095E1,2.9574009E1,3.2408984E0,8.312709E0,-3.6411755E0,5.0943387E-1,-1.0298276E1,-4.9003205E0,-9.197273E0,-2.8640485E0,-1.7123222E1,-9.7558E0],"categories":[],"categories_nodes":[],"categories_segments":[],"categories_sizes":[],"default_left":[0,0,0,0,0,0,0,0,0,0,0,0,0,0,0,0,0,0,0,0,0,0,0,0,0,0,0,0,0,0,0,0,0,0,0,0,0,0,0,0,0,0,0,0,0,0,0,0,0,0,0,0,0,0,0,0,0,0,0,0,0,0,0,0,0,0,0,0,0,0,0,0,0,0,0,0,0,0,0,0,0,0,0,0,0,0,0,0,0,0,0,0,0,0,0,0,0,0,0,0,0,0,0,0,0,0,0,0,0,0,0,0,0,0,0,0,0,0,0,0,0,0,0,0,0,0,0,0,0,0,0,0,0,0,0,0,0,0,0,0,0],"id":4,"left_children":[1,3,5,7,9,11,13,15,17,19,21,23,25,-1,27,29,31,33,35,37,39,41,43,45,-1,-1,-1,-1,-1,47,-1,49,-1,51,53,55,57,59,61,63,65,67,69,71,73,75,77,-1,-1,-1,79,-1,-1,-1,-1,81,83,85,87,89,-1,91,93,-1,95,-1,97,99,101,103,105,-1,107,109,-1,-1,-1,111,-1,-1,113,-1,-1,-1,-1,115,-1,-1,117,-1,-1,-1,-1,-1,-1,-1,-1,-1,-1,-1,119,-1,-1,121,-1,-1,-1,123,125,-1,-1,-1,-1,-1,-1,-1,-1,-1,-1,127,129,-1,131,133,135,137,139,-1,-1,-1,-1,-1,-1,-1,-1,-1,-1,-1,-1,-1,-1],"loss_changes":[4.0191472E8,1.582359E8,5.361424E6,2.1337632E7,1.7978722E7,2.29704E6,1.237856E6,5.390995E5,4.969024E6,1.9972585E6,2.2095968E7,1.672832E6,1.7423E4,0E0,1.459075E5,1.66667E5,1.4644238E5,7.66864E5,8.028848E6,7.27772E5,9.750885E4,2.097854E6,4.0304125E5,2.24128E5,0E0,0E0,0E0,0E0,0E0,4.0343E4,0E0,5.551547E4,0E0,9.3712E4,2.89835E5,5.030616E6,1.895864E6,1.1019131E5,1.61428E5,7.014789E3,1.7653137E4,4.6417E5,1.5407575E5,2.1868825E5,1.038275E4,6.8702E4,1.08064E5,0E0,0E0,0E0,2.5779531E4,0E0,0E0,0E0,0E0,1.41656E5,6.00144E5,2.89588E5,6.05995E4,3.7745938E4,0E0,4.9473688E4,2.9925E4,0E0,2.5170898E3,0E0,4.708594E3,7.16818E5,1.81155E4,8.305916E4,5.798625E3,0E0,1.0284575E5,3.36325E3,0E0,0E0,0E0,4.13604E5,0E0,0E0,4.9683584E3,0E0,0E0,0E0,0E0,2.288E3,0E0,0E0,5.03275E4,0E0,0E0,0E0,0E0,0E0,0E0,0E0,0E0,0E0,0E0,0E0,2.46436E5,0E0,0E0,2.3224969E4,0E0,0E0,0E0,4.622561E4,5.8877938E4,0E0,0E0,0E0,0E0,0E0,0E0,0E0,0E0,0E0,0E0,2.744775E4,5.0454E4,0E0,3.644211E3,8.1571064E3,5.954953E3,1.0375922E4,8.917375E3,0E0,0E0,0E0,0E0,0E0,0E0,0E0,0E0,0E0,0E0,0E0,0E0,0E0,0E0],"parents":[2147483647,0,0,1,1,2,2,3,3,4,4,5,5,6,6,7,7,8,8,9,9,10,10,11,11,12,12,14,14,15,15,16,16,17,17,18,18,19,19,20,20,21,21,22,22,23,23,29,29,31,31,33,33,34,34,35,35,36,36,37,37,38,38,39,39,40,40,41,41,42,42,43,43,44,44,45,45,46,46,50,50,55,55,56,56,57,57,58,58,59,59,61,61,62,62,64,64,66,66,67,67,68,68,69,69,70,70,72,72,73,73,77,77,80,80,85,85,88,88,100,100,103,103,107,107,108,108,119,119,120,120,122,122,123,123,124,124,125,125,126,126],"right_children":[2,4,6,8,10,12,14,16,18,20,22,24,26,-1,28,30,32,34,36,38,40,42,44,46,-1,-1,-1,-1,-1,48,-1,50,-1,52,54,56,58,60,62,64,66,68,70,72,74,76,78,-1,-1,-1,80,-1,-1,-1,-1,82,84,86,88,90,-1,92,94,-1,96,-1,98,100,102,104,106,-1,108,110,-1,-1,-1,112,-1,-1,114,-1,-1,-1,-1,116,-1,-1,118,-1,-1,-1,-1,-1,-1,-1,-1,-1,-1,-1,120,-1,-1,122,-1,-1,-1,124,126,-1,-1,-1,-1,-1,-1,-1,-1,-1,-1,128,130,-1,132,134,136,138,140,-1,-1,-1,-1,-1,-1,-1,-1,-1,-1,-1,-1,-1,-1],"split_conditions":[-1.6280702E-1,1.7238474E9,1.7197938E9,-9.698021E-1,-9.233296E-1,-8.9149445E-1,2.7364E1,-1.9174768E-1,-5.672926E-1,1.7263188E9,-8.085952E-1,-9.4083214E-1,-6.087614E-1,7.377529E1,1.7204957E9,2.8828E1,2.4768E1,7.855E1,-9.0580195E-1,1.7258382E9,1.103E1,-4.1784534E-1,1.9047E1,-6.087614E-1,6.2639484E1,2.6787489E1,3.630161E1,4.9968094E1,2.2799667E1,5.5433E1,-3.598813E1,1.3052619E-1,-1.7436255E1,-6.090459E-1,8E-3,-9.503894E-1,4.3388373E-1,-6.684858E-2,1.0011E1,5.615E0,-7.0710677E-1,9.755E1,-9.1456366E-1,1.7239212E9,1.7241804E9,3.635E1,1.7194248E9,-2.386965E1,-1.5145875E1,-9.321946E0,6.087614E-1,-8.684186E1,-7.260105E1,-2.4076885E1,-6.29092E1,-9.612287E-1,1.7216748E9,7.0710677E-1,0E0,1.7257284E9,-2.1184982E1,8.7767E1,6.055E1,8.938177E0,7.933533E-1,-7.3401313E0,7.1683E1,1.7245116E9,-4.7459525E-1,2.3362E1,2.192843E-1,-2.241131E1,1.7241804E9,-3.8268343E-1,-2.9483778E1,2.608039E1,4.4319168E1,1.7191656E9,5.8272854E1,5.739617E0,4.1067E1,-4.5734978E1,-6.0995605E1,-7.74091E1,-9.811257E1,7.325E1,-4.470727E1,-3.652492E1,9.749279E-1,-4.9910984E0,-1.2928292E1,-2.2465607E1,-7.9894E0,-3.758355E1,-2.8828106E1,1.7771331E0,5.3486857E0,-2.7701871E0,1.15992E0,7.863732E-1,-8.926289E-1,5.8432175E1,3.4395123E1,1.7255808E9,-1.7744578E0,2.2067106E1,1.2176367E1,1.4259E1,1.3318E1,-2.2785875E1,-1.3160591E1,5.137346E1,3.7671192E1,-4.667421E0,-2.8874084E-1,-6.0911922E1,-4.1322693E1,-2.961017E1,-1.6812082E1,2.4965E1,1.9942E1,1.6162773E1,7.1120447E-1,1E0,1E0,8.7E1,8.660254E-1,2.7974499E1,1.2846245E1,3.8993095E1,2.9574009E1,3.2408984E0,8.312709E0,-3.6411755E0,5.0943387E-1,-1.0298276E1,-4.9003205E0,-9.197273E0,-2.8640485E0,-1.7123222E1,-9.7558E0],"split_indices":[11,7,7,12,11,12,0,11,11,7,11,12,9,0,7,0,3,1,12,7,3,12,3,9,0,0,0,0,0,1,0,9,0,11,2,12,13,4,0,0,9,1,11,7,7,1,7,0,0,0,9,0,0,0,0,12,7,5,9,7,0,1,1,0,9,0,1,7,5,0,4,0,7,9,0,0,0,7,0,0,1,0,0,0,0,1,0,0,13,0,0,0,0,0,0,0,0,0,0,0,11,0,0,7,0,0,0,0,3,0,0,0,0,0,0,0,0,0,0,3,0,0,5,14,14,1,9,0,0,0,0,0,0,0,0,0,0,0,0,0,0],"split_type":[0,0,0,0,0,0,0,0,0,0,0,0,0,0,0,0,0,0,0,0,0,0,0,0,0,0,0,0,0,0,0,0,0,0,0,0,0,0,0,0,0,0,0,0,0,0,0,0,0,0,0,0,0,0,0,0,0,0,0,0,0,0,0,0,0,0,0,0,0,0,0,0,0,0,0,0,0,0,0,0,0,0,0,0,0,0,0,0,0,0,0,0,0,0,0,0,0,0,0,0,0,0,0,0,0,0,0,0,0,0,0,0,0,0,0,0,0,0,0,0,0,0,0,0,0,0,0,0,0,0,0,0,0,0,0,0,0,0,0,0,0],"sum_hessian":[5.015E3,3.133E3,1.882E3,1.741E3,1.392E3,1.468E3,4.14E2,2.19E2,1.522E3,4.3E2,9.62E2,1.271E3,1.97E2,3.59E2,5.5E1,1.4E2,7.9E1,5.71E2,9.51E2,3.51E2,7.9E1,6.31E2,3.31E2,9.41E2,3.3E2,5.1E1,1.46E2,4.2E1,1.3E1,1.12E2,2.8E1,5.3E1,2.6E1,5.16E2,5.5E1,5.06E2,4.45E2,9.6E1,2.55E2,3.8E1,4.1E1,5.3E2,1.01E2,2.55E2,7.6E1,2.62E2,6.79E2,7E1,4.2E1,2.1E1,3.2E1,3.76E2,1.4E2,1E1,4.5E1,1.88E2,3.18E2,3.03E2,1.42E2,6.5E1,3.1E1,4.9E1,2.06E2,1.3E1,2.5E1,1.8E1,2.3E1,4.81E2,4.9E1,6E1,4.1E1,3.9E1,2.16E2,4.3E1,3.3E1,1.9E1,2.43E2,5.42E2,1.37E2,1E1,2.2E1,8.9E1,9.9E1,1.76E2,1.42E2,1.9E2,1.13E2,6.9E1,7.3E1,3E1,3.5E1,3.8E1,1.1E1,6.2E1,1.44E2,1.3E1,1.2E1,1.3E1,1E1,1.4E1,4.67E2,3.1E1,1.8E1,4.3E1,1.7E1,2.5E1,1.6E1,9.5E1,1.21E2,2.5E1,1.8E1,4.4E2,1.02E2,1E1,1.2E1,1.64E2,2.6E1,4.8E1,2.5E1,9.6E1,3.71E2,1.1E1,3.2E1,4.4E1,5.1E1,4.6E1,7.5E1,8.6E1,1E1,3.05E2,6.6E1,1E1,2.2E1,2.9E1,1.5E1,3.6E1,1.5E1,3.5E1,1.1E1,5.6E1,1.9E1],"tree_param":{"num_deleted":"0","num_feature":"17","num_nodes":"141","size_leaf_vector":"1"}},{"base_weights":[-1.321606E0,3.099257E2,-1.8762244E2,3.960991E2,2.8406583E2,-3.591985E2,2.596324E1,4.2655817E2,2.997989E2,2.973851E2,1.947613E2,-1.0988965E2,-3.9487946E2,-1.1854834E2,9.0744064E1,5.2400776E1,6.782642E1,4.8514736E1,1.7687592E1,2.7764786E2,5.40655E1,3.4145294E1,2.5871132E1,-1.421654E2,-4.8682068E1,-4.5974622E2,-3.5504156E2,-1.4572151E2,3.6454983E0,1.850484E2,-8.7744934E1,2.4288835E2,2.9195477E2,-1.6577295E2,-9.4161125E1,-2.0940392E1,-1.0567033E2,-4.644537E2,-2.6566523E1,-4.0579376E2,-2.2472716E2,-1.6691995E2,-7.138879E1,3.4999237E1,-2.4360504E1,9.758547E1,2.137164E2,-5.63403E1,-1.2076149E2,3.7041946E1,1.8471941E1,2.8143323E2,4.9695564E1,-1.4512006E2,-3.232686E1,-7.7360635E0,-1.5884095E1,-3.717706E1,2.7271395E0,-1.9050468E1,-8.553206E0,-7.8998856E1,-4.3462625E2,-3.0649026E2,-4.3804938E2,-3.0183716E2,-1.7702986E2,-1.7093811E2,-7.123296E0,-5.1629208E1,-1.734264E1,7.418153E0,2.0757868E1,-1.1617213E1,-8.075885E0,4.130155E1,1.3052722E2,2.0151437E2,2.9751135E2,-7.442211E1,-2.5384146E1,-1.27835304E2,-7.2170672E0,2.9711952E1,4.3857746E1,-1.5047985E1,-2.5068909E1,1.5250278E0,-7.978797E0,-6.728522E1,-4.921709E1,-2.6092546E1,-4.7506134E1,-4.9146088E2,-3.2796707E2,-4.701605E1,-2.4072973E1,-3.241211E1,-1.5839478E2,-1.8913823E2,-1.3616261E2,-2.9515762E1,-1.061974E1,3.97804E-1,4.8689814E0,-4.2551937E0,7.2589177E-1,1.3996913E0,6.862613E1,1.288097E1,2.2536942E1,1.0959715E0,2.0760663E2,3.415593E1,6.1572857E1,-4.372925E1,-8.482735E1,3.1361114E-2,-3.7162666E1,-1.4331375E2,-1.0108581E2,-6.3205185E1,-8.1257484E1,-3.8388447E1,-5.6864655E1,-2.6246016E1,-1.0303269E2,-3.057854E1,-1.8928051E1,-2.265668E1,-1.430573E1,-3.356295E1,-2.5187612E0,-3.0664551E0,2.73993E0,7.5132337E0,1.419531E1,3.2690296E1,2.4516237E1,-8.990912E0,-3.5993807E0,-8.840367E0,-1.0156646E2,-1.0810578E0,1.2941761E0,-2.3911803E0,-6.5861225E0,-2.3119215E1,-1.1300176E1,-8.845113E0,-1.170587E2,-1.741E1,-8.939189E0,-2.6097255E0,-6.3710957E0,-1.7597366E1,-9.878941E0,-1.9452322E1,-9.808224E0],"categories":[],"categories_nodes":[],"categories_segments":[],"categories_sizes":[],"default_left":[0,0,0,0,0,0,0,0,0,0,0,0,0,0,0,0,0,0,0,0,0,0,0,0,0,0,0,0,0,0,0,0,0,0,0,0,0,0,0,0,0,0,0,0,0,0,0,0,0,0,0,0,0,0,0,0,0,0,0,0,0,0,0,0,0,0,0,0,0,0,0,0,0,0,0,0,0,0,0,0,0,0,0,0,0,0,0,0,0,0,0,0,0,0,0,0,0,0,0,0,0,0,0,0,0,0,0,0,0,0,0,0,0,0,0,0,0,0,0,0,0,0,0,0,0,0,0,0,0,0,0,0,0,0,0,0,0,0,0,0,0,0,0,0,0,0,0,0,0,0,0,0,0,0,0,0,0,0,0],"id":5,"left_children":[1,3,5,7,9,11,13,15,17,19,21,23,25,27,29,-1,-1,-1,-1,31,-1,-1,-1,33,35,37,39,41,43,45,47,49,51,53,55,57,59,61,-1,63,65,67,69,71,73,75,77,79,81,-1,-1,83,-1,85,-1,-1,-1,87,-1,-1,-1,-1,89,91,93,95,97,99,-1,101,-1,-1,103,105,-1,107,109,111,113,115,117,119,-1,-1,-1,-1,-1,-1,-1,-1,-1,-1,-1,121,123,-1,-1,-1,125,127,129,131,-1,-1,-1,-1,-1,133,135,-1,-1,-1,137,-1,-1,139,141,143,145,147,149,-1,-1,-1,-1,-1,151,-1,-1,-1,-1,153,-1,-1,-1,-1,-1,-1,-1,-1,-1,-1,155,-1,-1,-1,-1,-1,-1,-1,157,-1,-1,-1,-1,-1,-1,-1,-1],"loss_changes":[2.909398E8,3.878288E6,1.1504856E8,9.01384E5,1.571224E6,1.5365152E7,1.3142189E7,1.76616E5,3.59392E5,1.272056E6,3.68885E4,4.186245E5,3.485568E6,1.4453055E6,1.635031E7,0E0,0E0,0E0,0E0,2.87128E5,0E0,0E0,0E0,1.196265E5,1.2122942E5,5.34016E5,6.064168E6,5.27395E5,7.411229E4,1.533816E6,3.3010375E5,3.9142E4,1.746E4,8.20925E3,1.1052781E4,3.851175E4,6.2190938E3,3.89528E5,0E0,1.822336E6,8.59866E5,1.093E5,5.598172E4,5.1152656E3,1.4834293E4,2.8467575E5,3.21736E5,9.404819E4,6.6042E4,0E0,0E0,3.09124E5,0E0,2.5481875E4,0E0,0E0,0E0,3.293309E4,0E0,0E0,0E0,0E0,1.3516E5,7.0199E4,2.55576E6,1.6464E4,3.20165E4,9.649E4,0E0,2.0370078E4,0E0,0E0,4.868493E3,9.961729E3,0E0,6.901402E4,5.174575E4,4.96646E5,1.760895E5,2.4891125E4,2.0982027E4,2.01865E4,0E0,0E0,0E0,0E0,0E0,0E0,0E0,0E0,0E0,0E0,0E0,5.53376E5,3.7244E5,0E0,0E0,0E0,6.5155E4,7.90795E4,2.01685E4,6.723633E1,0E0,0E0,0E0,0E0,0E0,1.1531701E4,4.8880156E3,0E0,0E0,0E0,8.123E4,0E0,0E0,6.5807383E3,1.8038312E4,1.7029186E3,4.6609062E3,2.875525E4,2.3098188E4,0E0,0E0,0E0,0E0,0E0,5.884375E2,0E0,0E0,0E0,0E0,1.0681836E3,0E0,0E0,0E0,0E0,0E0,0E0,0E0,0E0,0E0,0E0,3.3283125E3,0E0,0E0,0E0,0E0,0E0,0E0,0E0,3.6843125E3,0E0,0E0,0E0,0E0,0E0,0E0,0E0,0E0],"parents":[2147483647,0,0,1,1,2,2,3,3,4,4,5,5,6,6,7,7,8,8,9,9,10,10,11,11,12,12,13,13,14,14,19,19,23,23,24,24,25,25,26,26,27,27,28,28,29,29,30,30,31,31,32,32,33,33,34,34,35,35,36,36,37,37,39,39,40,40,41,41,42,42,43,43,44,44,45,45,46,46,47,47,48,48,51,51,53,53,57,57,62,62,63,63,64,64,65,65,66,66,67,67,69,69,72,72,73,73,75,75,76,76,77,77,78,78,79,79,80,80,81,81,93,93,94,94,98,98,99,99,100,100,101,101,107,107,108,108,112,112,115,115,116,116,117,117,118,118,119,119,120,120,126,126,131,131,142,142,150,150],"right_children":[2,4,6,8,10,12,14,16,18,20,22,24,26,28,30,-1,-1,-1,-1,32,-1,-1,-1,34,36,38,40,42,44,46,48,50,52,54,56,58,60,62,-1,64,66,68,70,72,74,76,78,80,82,-1,-1,84,-1,86,-1,-1,-1,88,-1,-1,-1,-1,90,92,94,96,98,100,-1,102,-1,-1,104,106,-1,108,110,112,114,116,118,120,-1,-1,-1,-1,-1,-1,-1,-1,-1,-1,-1,122,124,-1,-1,-1,126,128,130,132,-1,-1,-1,-1,-1,134,136,-1,-1,-1,138,-1,-1,140,142,144,146,148,150,-1,-1,-1,-1,-1,152,-1,-1,-1,-1,154,-1,-1,-1,-1,-1,-1,-1,-1,-1,-1,156,-1,-1,-1,-1,-1,-1,-1,158,-1,-1,-1,-1,-1,-1,-1,-1],"split_conditions":[1.7205696E9,-1.7931456E-3,1.7238474E9,-9.926188E-1,-8.9149445E-1,-9.698021E-1,-9.233296E-1,-6.087614E-1,3.1558E1,-9.357479E-1,-8.7967134E-1,-1.9174768E-1,-5.672926E-1,1.7263188E9,-8.085952E-1,5.2400776E1,6.782642E1,4.8514736E1,1.7687592E1,-5E-1,5.40655E1,3.4145294E1,2.5871132E1,5.3E1,2.5378E1,9.5017E1,1.7222652E9,-9.342215E-1,1.103E1,-8.9916056E-1,1.5338E1,3.1558E1,1.7194248E9,3.0365E1,1.720791E9,-1.6987966E-1,7.933533E-1,-2.2252093E-1,-2.6566523E1,-9.516091E-1,-5.374004E-1,9.0617E1,2.207E1,8.017E0,1.5619E1,-9.1456366E-1,9.755E1,6.234898E-1,7.0710677E-1,3.7041946E1,1.8471941E1,-9.947077E-1,4.9695564E1,-9.773198E-1,-3.232686E1,-7.7360635E0,-1.5884095E1,1.7413E1,2.7271395E0,-1.9050468E1,-8.553206E0,-7.8998856E1,-7.214126E-1,1.6535E1,-9.0580195E-1,6.1367E1,-6.087614E-1,-9.4664156E-1,-7.123296E0,1.7257284E9,-1.734264E1,7.418153E0,7.933533E-1,3.8268343E-1,-8.075885E0,5.785E1,6.0333E1,1.7245116E9,6.087614E-1,1.1685E1,1.2077E1,6.234898E-1,-7.2170672E0,2.9711952E1,4.3857746E1,-1.5047985E1,-2.5068909E1,1.5250278E0,-7.978797E0,-6.728522E1,-4.921709E1,-2.6092546E1,-4.7506134E1,-9.3319434E-1,-8.92952E-1,-4.701605E1,-2.4072973E1,-3.241211E1,9.749279E-1,8.3883E1,6.755902E-1,7.933533E-1,-1.061974E1,3.97804E-1,4.8689814E0,-4.2551937E0,7.2589177E-1,-8.660254E-1,7.0983E1,1.288097E1,2.2536942E1,1.0959715E0,1.9942E1,3.415593E1,6.1572857E1,0E0,7.56E1,8.1117E1,-7.0710677E-1,1.7244378E9,1.92E1,-6.3205185E1,-8.1257484E1,-3.8388447E1,-5.6864655E1,-2.6246016E1,7.933533E-1,-3.057854E1,-1.8928051E1,-2.265668E1,-1.430573E1,1.5407E1,-2.5187612E0,-3.0664551E0,2.73993E0,7.5132337E0,1.419531E1,3.2690296E1,2.4516237E1,-8.990912E0,-3.5993807E0,-8.840367E0,1.724328E9,-1.0810578E0,1.2941761E0,-2.3911803E0,-6.5861225E0,-2.3119215E1,-1.1300176E1,-8.845113E0,-1.3052619E-1,-1.741E1,-8.939189E0,-2.6097255E0,-6.3710957E0,-1.7597366E1,-9.878941E0,-1.9452322E1,-9.808224E0],"split_indices":[7,11,7,12,12,12,11,9,3,12,12,11,11,7,11,0,0,0,0,9,0,0,0,1,3,1,7,11,3,11,3,3,7,0,7,11,10,14,0,12,11,1,3,3,0,11,1,14,9,0,0,12,0,12,0,0,0,0,0,0,0,0,12,3,12,1,9,11,0,7,0,0,9,10,0,1,1,7,10,0,0,14,0,0,0,0,0,0,0,0,0,0,0,12,12,0,0,0,13,1,5,9,0,0,0,0,0,9,1,0,0,0,0,0,0,13,1,1,10,7,3,0,0,0,0,0,9,0,0,0,0,0,0,0,0,0,0,0,0,0,0,0,7,0,0,0,0,0,0,0,9,0,0,0,0,0,0,0,0],"split_type":[0,0,0,0,0,0,0,0,0,0,0,0,0,0,0,0,0,0,0,0,0,0,0,0,0,0,0,0,0,0,0,0,0,0,0,0,0,0,0,0,0,0,0,0,0,0,0,0,0,0,0,0,0,0,0,0,0,0,0,0,0,0,0,0,0,0,0,0,0,0,0,0,0,0,0,0,0,0,0,0,0,0,0,0,0,0,0,0,0,0,0,0,0,0,0,0,0,0,0,0,0,0,0,0,0,0,0,0,0,0,0,0,0,0,0,0,0,0,0,0,0,0,0,0,0,0,0,0,0,0,0,0,0,0,0,0,0,0,0,0,0,0,0,0,0,0,0,0,0,0,0,0,0,0,0,0,0,0,0],"sum_hessian":[5.012E3,1.876E3,3.136E3,4.24E2,1.452E3,1.738E3,1.398E3,3.15E2,1.09E2,1.258E3,1.94E2,2.19E2,1.519E3,4.32E2,9.66E2,8.5E1,2.3E2,9.5E1,1.4E1,9.66E2,2.92E2,7E1,1.24E2,1.41E2,7.8E1,5.67E2,9.52E2,3.53E2,7.9E1,6.32E2,3.34E2,2.96E2,6.7E2,9E1,5.1E1,5.5E1,2.3E1,5.56E2,1.1E1,6.81E2,2.71E2,2.72E2,8.1E1,3.7E1,4.2E1,1.59E2,4.73E2,1.75E2,1.59E2,2.85E2,1.1E1,5.44E2,1.26E2,7.1E1,1.9E1,1.4E1,3.7E1,3.9E1,1.6E1,1.3E1,1E1,1.68E2,3.88E2,1.74E2,5.07E2,9.8E1,1.73E2,2.62E2,1E1,6E1,2.1E1,1.5E1,2.2E1,3.2E1,1E1,6.1E1,9.8E1,4.21E2,5.2E1,1.08E2,6.7E1,1.43E2,1.6E1,6.5E1,4.79E2,2.8E1,4.3E1,1E1,2.9E1,3.39E2,4.9E1,1.5E1,1.59E2,3.35E2,1.72E2,8.8E1,1E1,4.7E1,1.26E2,1.64E2,9.8E1,3.1E1,2.9E1,1E1,1.2E1,1.5E1,1.7E1,2.6E1,3.5E1,3.4E1,6.4E1,1.3E1,4.08E2,3.7E1,1.5E1,3.1E1,7.7E1,2.2E1,4.5E1,8.3E1,6E1,1.47E2,1.88E2,7.7E1,9.5E1,9.3E1,3.3E1,1.29E2,3.5E1,6.7E1,3.1E1,2E1,1.1E1,1.1E1,1.5E1,2.5E1,1E1,3.26E2,8.2E1,1.4E1,1.7E1,3.5E1,4.2E1,1.2E1,1E1,1.3E1,3.2E1,6.9E1,1.4E1,2E1,4E1,2.2E1,1.1E1,1E1,1E1,2.5E1,1.7E1,2.9E1,1.1E1],"tree_param":{"num_deleted":"0","num_feature":"17","num_nodes":"159","size_leaf_vector":"1"}},{"base_weights":[4.652763E-1,-1.5897351E2,2.6447028E2,-3.0462378E2,2.5512537E1,2.4266684E2,3.3976627E2,-1.3177502E2,-3.4086407E2,-1.0245161E2,8.330779E1,2.5413527E2,1.6502533E2,2.7443085E2,3.7545743E2,-7.585134E1,-2.0110359E2,-3.6686234E2,-2.7754102E2,-1.26067566E2,2.8551934E0,1.580213E2,-7.144094E1,2.3374826E2,2.9746936E2,2.8906845E1,2.2011639E1,2.936724E2,2.1730236E1,4.2135845E1,5.8975033E1,-6.4496506E1,-2.420187E1,-2.3752846E1,-3.5624935E1,-6.4908615E1,-3.4509085E2,-2.065193E2,-3.441204E2,-6.881871E1,-1.4673434E2,2.3040552E1,-3.447291E1,1.7616605E2,5.8729294E1,-4.779754E1,-1.1278703E2,2.7057126E2,2.2245819E2,3.0075986E2,2.478992E1,4.5450966E1,2.3779926E1,-3.01348E1,-8.9975296E1,-3.9837756E2,-2.8575003E2,-2.5939417E2,-1.4258794E2,-3.7557068E2,-1.7144359E2,-4.649783E1,-1.5976046E1,-2.8198711E1,-1.2901393E2,3.4624832E1,2.4510512E0,-6.879363E0,-2.9553988E0,1.6672229E2,2.5379797E2,8.265356E1,2.2071064E1,-6.2862232E1,-2.3658281E1,-8.513669E1,-1.2728624E2,4.145372E1,2.0877537E1,2.3275177E2,1.614059E2,4.2166275E1,5.0610294E1,-5.584776E1,-7.9328175E0,-9.137237E0,-1.6004763E1,-5.128046E1,-6.905428E1,-5.257768E1,-2.5166692E2,-2.5699326E1,-4.211743E1,-1.5972725E2,-1.1552905E1,-5.951386E1,-3.7618996E1,-3.392659E1,-1.5138218E1,-2.698098E1,-9.524577E0,-1.3326704E2,-6.2812586E0,6.67818E0,3.611136E0,2.5292966E0,-1.8369435E0,5.493822E-1,1.7146439E2,2.8348928E1,5.373551E1,9.701829E1,9.536038E-1,5.964124E0,-4.5753675E0,-3.6009228E1,-7.001799E1,-8.9562235E0,-3.9659885E1,-1.4937488E1,-8.741011E0,-2.0235817E1,-1.0793934E1,3.7885574E1,2.1107713E2,2.7005844E1,1.717099E1,-3.7779286E0,-9.960839E0,-5.7959228E0,6.3474236E0,-2.7504517E2,-1.6638603E2,-2.645513E1,-1.6842407E1,-4.944105E0,-2.3733683E0,-2.1960283E1,-1.5129101E1,1.8387697E2,1.3839574E2,1.6444496E1,8.007025E0,-7.3136973E0,-3.0106518E0,-7.590024E1,-7.2553344E0,-1.5022833E1,6.317823E-1,-7.1672983E0,-2.3194742E0,2.938917E1,3.6632904E1,-1.2992917E0,2.4129581E0,-4.4658882E1,-3.1138556E1,-1.0920376E1,-2.929792E1,2.80059E1,1.4659579E1,2.2922092E1,1.6655828E1,-1.2251096E1,-7.0537868E0,-6.578659E-1,-3.337958E0],"categories":[],"categories_nodes":[],"categories_segments":[],"categories_sizes":[],"default_left":[0,0,0,0,0,0,0,0,0,0,0,0,0,0,0,0,0,0,0,0,0,0,0,0,0,0,0,0,0,0,0,0,0,0,0,0,0,0,0,0,0,0,0,0,0,0,0,0,0,0,0,0,0,0,0,0,0,0,0,0,0,0,0,0,0,0,0,0,0,0,0,0,0,0,0,0,0,0,0,0,0,0,0,0,0,0,0,0,0,0,0,0,0,0,0,0,0,0,0,0,0,0,0,0,0,0,0,0,0,0,0,0,0,0,0,0,0,0,0,0,0,0,0,0,0,0,0,0,0,0,0,0,0,0,0,0,0,0,0,0,0,0,0,0,0,0,0,0,0,0,0,0,0,0,0,0,0,0,0,0,0,0,0,0,0,0,0],"id":6,"left_children":[1,3,5,7,9,11,13,15,17,19,21,23,25,27,29,31,33,35,37,39,41,43,45,47,49,-1,-1,51,-1,-1,-1,53,-1,-1,-1,-1,55,57,59,61,63,65,67,69,71,73,75,77,79,81,-1,-1,-1,83,85,87,89,91,93,95,97,99,-1,-1,101,103,105,-1,-1,107,109,111,113,115,117,119,121,-1,-1,123,125,-1,-1,127,129,-1,-1,-1,-1,-1,131,-1,-1,133,-1,-1,-1,-1,-1,135,-1,137,-1,-1,-1,-1,-1,-1,139,-1,-1,141,-1,-1,-1,143,145,147,149,-1,-1,-1,-1,-1,151,-1,-1,-1,-1,-1,153,155,157,-1,-1,-1,-1,-1,-1,159,161,-1,-1,-1,-1,163,-1,165,-1,-1,-1,-1,-1,-1,-1,-1,-1,-1,-1,-1,-1,-1,-1,-1,-1,-1,-1],"loss_changes":[2.1136605E8,8.414588E7,2.87784E6,1.0836768E7,1.0256811E7,1.198632E6,6.91664E5,1.1507445E6,2.099344E6,1.074995E6,1.106932E7,9.40592E5,2.2741E4,2.77541E5,1.167E5,1.3987731E5,1.065955E5,1.023856E6,1.84635E6,3.892085E5,6.370636E4,1.132704E6,2.905655E5,2.02088E5,3.812E4,0E0,0E0,2.4669E4,0E0,0E0,0E0,1.3123281E5,0E0,0E0,0E0,0E0,2.134648E6,6.27357E5,1.01093E6,6.8551875E4,1.186935E5,1.2714426E4,2.3292656E3,2.82202E5,8.569866E4,6.978556E4,1.4673E4,2.4697E4,3.31288E5,2.3212E4,0E0,0E0,0E0,3.955521E4,2.5028938E4,9.69528E5,5.76472E5,7.81875E4,8.28285E4,1.90644E5,8.564675E4,1.7009969E4,0E0,0E0,5.399975E4,5.0430078E2,5.360365E3,0E0,0E0,3.78807E5,1.7813475E5,6.568881E4,4.459993E4,1.6603656E4,1.835404E4,1.7365625E3,4.40375E2,0E0,0E0,9.7176E4,3.661175E4,0E0,0E0,5.6492812E3,1.8994412E4,0E0,0E0,0E0,0E0,0E0,3.81969E5,0E0,0E0,7.117375E3,0E0,0E0,0E0,0E0,0E0,8.0551953E2,0E0,3.3348E4,0E0,0E0,0E0,0E0,0E0,0E0,1.26284E5,0E0,0E0,1.1592969E4,0E0,0E0,0E0,3.5544102E3,1.8050625E3,3.9323696E3,5.3235938E3,0E0,0E0,0E0,0E0,0E0,1.7615E4,0E0,0E0,0E0,0E0,0E0,4.863745E3,1.22695E5,1.25246125E5,0E0,0E0,0E0,0E0,0E0,0E0,1.8588E4,8.21775E3,0E0,0E0,0E0,0E0,4.72125E2,0E0,2.1584258E3,0E0,0E0,0E0,0E0,0E0,0E0,0E0,0E0,0E0,0E0,0E0,0E0,0E0,0E0,0E0,0E0,0E0,0E0,0E0],"parents":[2147483647,0,0,1,1,2,2,3,3,4,4,5,5,6,6,7,7,8,8,9,9,10,10,11,11,12,12,13,13,14,14,15,15,16,16,17,17,18,18,19,19,20,20,21,21,22,22,23,23,24,24,27,27,31,31,36,36,37,37,38,38,39,39,40,40,41,41,42,42,43,43,44,44,45,45,46,46,47,47,48,48,49,49,53,53,54,54,55,55,56,56,57,57,58,58,59,59,60,60,61,61,64,64,65,65,66,66,69,69,70,70,71,71,72,72,73,73,74,74,75,75,76,76,79,79,80,80,83,83,84,84,90,90,93,93,99,99,101,101,108,108,111,111,115,115,116,116,117,117,118,118,124,124,130,130,131,131,132,132,139,139,140,140,145,145,147,147],"right_children":[2,4,6,8,10,12,14,16,18,20,22,24,26,28,30,32,34,36,38,40,42,44,46,48,50,-1,-1,52,-1,-1,-1,54,-1,-1,-1,-1,56,58,60,62,64,66,68,70,72,74,76,78,80,82,-1,-1,-1,84,86,88,90,92,94,96,98,100,-1,-1,102,104,106,-1,-1,108,110,112,114,116,118,120,122,-1,-1,124,126,-1,-1,128,130,-1,-1,-1,-1,-1,132,-1,-1,134,-1,-1,-1,-1,-1,136,-1,138,-1,-1,-1,-1,-1,-1,140,-1,-1,142,-1,-1,-1,144,146,148,150,-1,-1,-1,-1,-1,152,-1,-1,-1,-1,-1,154,156,158,-1,-1,-1,-1,-1,-1,160,162,-1,-1,-1,-1,164,-1,166,-1,-1,-1,-1,-1,-1,-1,-1,-1,-1,-1,-1,-1,-1,-1,-1,-1,-1,-1],"split_conditions":[-1.6280702E-1,1.7238834E9,1.7197938E9,-9.612287E-1,-9.233296E-1,-8.9149445E-1,-1.0381511E-1,-9.741005E-1,6.2307E1,1.7263188E9,-8.085952E-1,-9.481338E-1,-8.7967134E-1,2.958E1,-9.9966663E-1,3.382E1,2.3101E1,-6.090459E-1,1.7228142E9,1.7258382E9,1.2882E1,-4.1784534E-1,1.7202E1,-9.9803126E-1,2.3362E1,2.8906845E1,2.2011639E1,-9.8751944E-1,2.1730236E1,4.2135845E1,5.8975033E1,1.7207172E9,-2.420187E1,-2.3752846E1,-3.5624935E1,-6.4908615E1,-8.994742E-1,-8.760647E-1,9.35E1,-6.684858E-2,6.36E1,9.827E0,6.087614E-1,9.755E1,1.7255808E9,6.234898E-1,1.99E1,2.7012E1,1.7192394E9,5E-1,2.478992E1,4.5450966E1,2.3779926E1,3.6017E1,-4.9495828E-1,-9.3319434E-1,-5.672926E-1,-7.818315E-1,9.749279E-1,9.749279E-1,7.489557E-1,-7.818315E-1,-1.5976046E1,-2.8198711E1,9.0617E1,5.615E0,-5.457071E-1,-6.879363E0,-2.9553988E0,1.7245116E9,6.087614E-1,2.6075E1,1.2246469E-16,1.1685E1,-5E-1,6.234898E-1,1.725E0,4.145372E1,2.0877537E1,-9.773198E-1,1.5152E1,4.2166275E1,5.0610294E1,2.3931E1,-7.5279415E-1,-9.137237E0,-1.6004763E1,-5.128046E1,-6.905428E1,-5.257768E1,4.3388373E-1,-2.5699326E1,-4.211743E1,1.578E0,-1.1552905E1,-5.951386E1,-3.7618996E1,-3.392659E1,-1.5138218E1,7.353051E-1,-9.524577E0,6.234898E-1,-6.2812586E0,6.67818E0,3.611136E0,2.5292966E0,-1.8369435E0,5.493822E-1,1.7252118E9,2.8348928E1,5.373551E1,4.7459525E-1,9.536038E-1,5.964124E0,-4.5753675E0,0E0,7.818315E-1,1E0,1E0,-1.4937488E1,-8.741011E0,-2.0235817E1,-1.0793934E1,3.7885574E1,2.8813905E-1,2.7005844E1,1.717099E1,-3.7779286E0,-9.960839E0,-5.7959228E0,1.725E0,5.51937E-1,1.7224128E9,-2.645513E1,-1.6842407E1,-4.944105E0,-2.3733683E0,-2.1960283E1,-1.5129101E1,2.6423E1,-1.9936794E-1,1.6444496E1,8.007025E0,-7.3136973E0,-3.0106518E0,1.777E0,-7.2553344E0,-8.660254E-1,6.317823E-1,-7.1672983E0,-2.3194742E0,2.938917E1,3.6632904E1,-1.2992917E0,2.4129581E0,-4.4658882E1,-3.1138556E1,-1.0920376E1,-2.929792E1,2.80059E1,1.4659579E1,2.2922092E1,1.6655828E1,-1.2251096E1,-7.0537868E0,-6.578659E-1,-3.337958E0],"split_indices":[11,7,7,12,11,12,11,12,1,7,11,12,12,3,12,3,0,11,7,7,3,12,3,12,0,0,0,12,0,0,0,7,0,0,0,0,12,12,1,4,1,3,10,1,7,14,3,3,7,10,0,0,0,1,4,12,11,13,13,13,5,13,0,0,1,0,5,0,0,7,10,0,4,0,10,14,2,0,0,12,3,0,0,0,4,0,0,0,0,0,13,0,0,2,0,0,0,0,0,5,0,14,0,0,0,0,0,0,7,0,0,4,0,0,0,13,13,14,14,0,0,0,0,0,11,0,0,0,0,0,2,5,7,0,0,0,0,0,0,3,4,0,0,0,0,2,0,10,0,0,0,0,0,0,0,0,0,0,0,0,0,0,0,0,0,0,0],"split_type":[0,0,0,0,0,0,0,0,0,0,0,0,0,0,0,0,0,0,0,0,0,0,0,0,0,0,0,0,0,0,0,0,0,0,0,0,0,0,0,0,0,0,0,0,0,0,0,0,0,0,0,0,0,0,0,0,0,0,0,0,0,0,0,0,0,0,0,0,0,0,0,0,0,0,0,0,0,0,0,0,0,0,0,0,0,0,0,0,0,0,0,0,0,0,0,0,0,0,0,0,0,0,0,0,0,0,0,0,0,0,0,0,0,0,0,0,0,0,0,0,0,0,0,0,0,0,0,0,0,0,0,0,0,0,0,0,0,0,0,0,0,0,0,0,0,0,0,0,0,0,0,0,0,0,0,0,0,0,0,0,0,0,0,0,0,0,0],"sum_hessian":[5.016E3,3.128E3,1.888E3,1.747E3,1.381E3,1.473E3,4.15E2,3.05E2,1.442E3,4.29E2,9.52E2,1.278E3,1.95E2,1.55E2,2.6E2,1.72E2,1.33E2,1.013E3,4.29E2,3.5E2,7.9E1,6.42E2,3.1E2,8.81E2,3.97E2,6.9E1,1.26E2,1.32E2,2.3E1,4.6E1,2.14E2,1.56E2,1.6E1,6.7E1,6.6E1,2.42E2,7.71E2,2.13E2,2.16E2,9.6E1,2.54E2,5.2E1,2.7E1,5.41E2,1.01E2,2.01E2,1.09E2,1.92E2,6.89E2,3.84E2,1.3E1,1.21E2,1.1E1,6.9E1,8.7E1,3.98E2,3.73E2,1.12E2,1.01E2,1.8E2,3.6E1,6.4E1,3.2E1,6.9E1,1.85E2,3.2E1,2E1,1.2E1,1.5E1,4.9E2,5.1E1,5.9E1,4.2E1,1.21E2,8E1,4.4E1,6.5E1,1.82E2,1E1,5.83E2,1.06E2,2.6E2,1.24E2,3E1,3.9E1,3.6E1,5.1E1,2.14E2,1.84E2,1.21E2,2.52E2,2.6E1,8.6E1,7.7E1,2.4E1,1.5E2,3E1,1.7E1,1.9E1,3.3E1,3.1E1,1.75E2,1E1,1.2E1,2E1,1E1,1E1,1.4E1,4.76E2,3.6E1,1.5E1,4.9E1,1E1,3.2E1,1E1,2.9E1,9.2E1,4.4E1,3.6E1,2.4E1,2E1,5.4E1,1.1E1,2.94E2,2.89E2,7.1E1,3.5E1,1E1,2E1,1.1E1,2.8E1,1.93E2,5.9E1,5.2E1,2.5E1,1.8E1,1.5E1,1.19E2,5.6E1,3.37E2,1.39E2,3.5E1,1.4E1,1.3E1,1.6E1,6.7E1,2.5E1,3E1,1.4E1,2.5E1,1.1E1,2.08E2,8.1E1,1.1E1,1.7E1,1.39E2,5.4E1,1.6E1,4.3E1,3.25E2,1.2E1,8.4E1,5.5E1,5.2E1,1.5E1,1.4E1,1.6E1],"tree_param":{"num_deleted":"0","num_feature":"17","num_nodes":"167","size_leaf_vector":"1"}},{"base_weights":[-2.0973458E0,2.2565967E2,-1.3747038E2,2.866896E2,2.0703722E2,-2.617271E2,1.7678644E1,2.977999E2,1.4936996E2,2.1475674E2,1.263003E2,-2.870731E2,-7.785557E1,-8.780112E1,6.5135666E1,3.3728732E2,2.6556787E2,2.6578194E1,1.3712903E1,2.4243835E2,1.9689871E2,1.0446048E1,2.0000526E1,-3.4302527E2,-2.613124E2,-1.0109621E2,-3.3012215E1,-1.0705924E2,3.4435308E0,-6.524441E1,1.3581717E2,3.0931643E1,5.2395397E1,2.3424782E1,4.0709206E1,2.5379443E2,1.7231577E2,1.4176581E2,2.0262886E2,-5.348322E1,-2.4797537E2,-3.1082565E2,-2.1257831E2,-6.9583046E1,-1.2025361E2,-6.750955E1,-8.647531E0,-5.984026E1,-1.2453408E2,2.0151117E1,-2.9167778E1,-5.152176E1,-1.0871871E2,1.5089265E2,5.1546192E1,2.3030998E2,4.514603E1,1.33543825E1,2.7206806E1,2.2755323E1,1.0161362E1,2.6033691E1,2.1331467E2,-4.681248E1,-1.6879457E2,-2.353904E2,-3.6993826E2,-1.9609886E2,-4.561466E1,-5.8868623E0,-1.1763268E1,-1.0653492E2,-2.6135574E1,-5.1881804E0,-1.2822242E1,2.4049199E0,-2.211333E1,-2.727499E1,-7.8560455E1,-8.116028E1,-1.350419E2,-5.643405E-1,2.6612183E1,-6.507345E0,-1.9061021E0,-6.642884E1,-2.5681808E1,-2.0029842E1,-8.253027E1,1.417248E2,2.2539804E2,6.509728E1,-2.0477102E0,2.681709E1,3.719553E1,2.261715E2,1.8063081E2,-3.0989899E1,-1.0627433E1,-1.9149548E2,-3.9418896E1,-4.9897465E1,-6.464121E1,-1.6186742E2,-2.3037811E2,-1.1111035E1,-1.8357914E1,1.4604397E-1,-7.6264567E0,-6.226599E0,-2.5349088E0,-8.0105715E0,-1.6249437E1,-1.0144181E2,-4.734376E0,-1.2255329E2,-2.6675884E1,3.3783085E1,3.3797428E-1,-4.8570076E1,-8.4222855E1,-7.240653E0,-3.9347435E1,-1.5597337E1,-8.267007E0,9.34127E-1,1.4573871E2,2.5553814E1,4.6895805E1,8.8243324E1,3.137363E1,1.5873508E0,-2.1713686E0,3.550402E1,2.3552454E1,3.0548344E1,1.524257E2,-2.5124203E1,-3.8221996E1,-1.8340398E2,-1.163133E2,-2.4684096E2,-2.1905699E1,-1.869224E1,-1.0774448E1,-1.3304587E2,-1.234926E1,2.0151453E0,6.1692014E0,-2.6134706E1,-5.3943787E1,-6.695423E1,-1.609804E1,-1.3207252E1,6.6010004E-1,-4.698548E1,-2.706833E0,1.3168587E2,2.5802908E1,1.4714106E1,6.9544964E0,1.9570992E0,5.5359387E0,2.4617487E1,1.5060225E1,-2.8583164E1,-1.508911E1,-2.22556E1,-1.2622534E1,-1.8884884E1,-3.786096E1,-2.1665018E1,-1.217356E1,-5.478129E0,-1.5075049E0,-6.2100706E0,-1.0369394E1,-7.2372465E0,-1.2258947E1,-5.750573E-1,-2.9882228E0,-3.5270963E0,-8.038228E0,1.3250828E1,2.1021498E1],"categories":[],"categories_nodes":[],"categories_segments":[],"categories_sizes":[],"default_left":[0,0,0,0,0,0,0,0,0,0,0,0,0,0,0,0,0,0,0,0,0,0,0,0,0,0,0,0,0,0,0,0,0,0,0,0,0,0,0,0,0,0,0,0,0,0,0,0,0,0,0,0,0,0,0,0,0,0,0,0,0,0,0,0,0,0,0,0,0,0,0,0,0,0,0,0,0,0,0,0,0,0,0,0,0,0,0,0,0,0,0,0,0,0,0,0,0,0,0,0,0,0,0,0,0,0,0,0,0,0,0,0,0,0,0,0,0,0,0,0,0,0,0,0,0,0,0,0,0,0,0,0,0,0,0,0,0,0,0,0,0,0,0,0,0,0,0,0,0,0,0,0,0,0,0,0,0,0,0,0,0,0,0,0,0,0,0,0,0,0,0,0,0,0,0,0,0,0,0,0,0,0,0,0,0],"id":7,"left_children":[1,3,5,7,9,11,13,15,17,19,21,23,25,27,29,31,33,-1,-1,35,37,-1,-1,39,41,43,45,47,49,51,53,-1,-1,-1,-1,55,57,59,61,-1,63,65,67,69,71,73,75,77,79,81,83,85,87,89,91,93,-1,-1,-1,-1,-1,-1,95,-1,97,99,101,103,-1,-1,-1,105,-1,-1,-1,-1,107,109,111,113,115,-1,117,-1,-1,119,121,-1,123,125,127,129,131,-1,-1,133,135,-1,-1,137,-1,-1,-1,139,141,-1,-1,-1,-1,-1,-1,-1,-1,143,-1,145,-1,147,-1,149,151,153,155,-1,-1,-1,157,-1,-1,159,161,-1,-1,-1,-1,-1,163,-1,-1,165,167,169,-1,-1,-1,171,-1,-1,-1,173,175,177,-1,179,-1,181,-1,183,-1,-1,-1,-1,-1,-1,-1,-1,-1,-1,-1,-1,-1,-1,-1,-1,-1,-1,-1,-1,-1,-1,-1,-1,-1,-1,-1],"loss_changes":[1.5488395E8,1.965368E6,6.075392E7,5.34732E5,8.25592E5,8.092504E6,7.0421995E6,2.5804E5,1.54045E4,5.18672E5,2.474125E4,1.969184E6,2.1535075E5,7.6871175E5,8.96077E6,4.8536E4,1.3769E4,0E0,0E0,2.80822E5,1.77868E5,0E0,0E0,3.28112E5,2.38532E6,6.1626125E4,6.3518633E4,2.7682675E5,4.446704E4,1.8874988E5,7.78255E5,0E0,0E0,0E0,0E0,2.76294E5,1.197825E4,3.22325E4,1.28852E5,0E0,1.7995225E5,2.087612E6,6.51082E5,7.0240312E3,1.0267625E4,1.023525E4,1.7145742E4,5.6483906E4,8.83635E4,8.634795E3,4.79384E3,9.744581E4,2.0533875E4,2.75844E5,7.296866E4,1.40342E5,0E0,0E0,0E0,0E0,0E0,0E0,1.0809E5,0E0,8.654244E4,1.39684E5,2.66868E5,4.47348E5,0E0,0E0,0E0,1.2274875E4,0E0,0E0,0E0,0E0,2.187971E4,4.074037E3,3.1396781E4,4.9082594E4,4.8718E4,0E0,7.154051E3,0E0,0E0,4.1460625E4,2.4725383E4,0E0,1.07124375E4,2.59125E5,1.11959E5,5.4346844E4,3.9743584E3,0E0,0E0,1.50274E5,1.7291E4,0E0,0E0,3.58595E4,0E0,0E0,0E0,1.80165E5,2.18581E5,0E0,0E0,0E0,0E0,0E0,0E0,0E0,0E0,2.2374688E3,0E0,4.0799E4,0E0,3.1747812E3,0E0,6.7480156E3,1.14004375E4,3.4253586E3,6.9227734E3,0E0,0E0,0E0,1.07417E5,0E0,0E0,5.694875E3,2.2180977E3,0E0,0E0,0E0,0E0,0E0,3.33225E3,0E0,0E0,3.6115E4,5.343075E4,2.4041E4,0E0,0E0,0E0,4.14595E4,0E0,0E0,0E0,2.6396592E3,5.166625E3,3.4018281E3,0E0,1.7082026E3,0E0,2.559836E3,0E0,7.6816E4,0E0,0E0,0E0,0E0,0E0,0E0,0E0,0E0,0E0,0E0,0E0,0E0,0E0,0E0,0E0,0E0,0E0,0E0,0E0,0E0,0E0,0E0,0E0,0E0,0E0,0E0,0E0],"parents":[2147483647,0,0,1,1,2,2,3,3,4,4,5,5,6,6,7,7,8,8,9,9,10,10,11,11,12,12,13,13,14,14,15,15,16,16,19,19,20,20,23,23,24,24,25,25,26,26,27,27,28,28,29,29,30,30,35,35,36,36,37,37,38,38,40,40,41,41,42,42,43,43,44,44,45,45,46,46,47,47,48,48,49,49,50,50,51,51,52,52,53,53,54,54,55,55,62,62,64,64,65,65,66,66,67,67,71,71,76,76,77,77,78,78,79,79,80,80,82,82,85,85,86,86,88,88,89,89,90,90,91,91,92,92,95,95,96,96,99,99,103,103,104,104,113,113,115,115,117,117,119,119,120,120,121,121,122,122,126,126,129,129,130,130,136,136,139,139,140,140,141,141,145,145,149,149,150,150,151,151,153,153,155,155,157,157],"right_children":[2,4,6,8,10,12,14,16,18,20,22,24,26,28,30,32,34,-1,-1,36,38,-1,-1,40,42,44,46,48,50,52,54,-1,-1,-1,-1,56,58,60,62,-1,64,66,68,70,72,74,76,78,80,82,84,86,88,90,92,94,-1,-1,-1,-1,-1,-1,96,-1,98,100,102,104,-1,-1,-1,106,-1,-1,-1,-1,108,110,112,114,116,-1,118,-1,-1,120,122,-1,124,126,128,130,132,-1,-1,134,136,-1,-1,138,-1,-1,-1,140,142,-1,-1,-1,-1,-1,-1,-1,-1,144,-1,146,-1,148,-1,150,152,154,156,-1,-1,-1,158,-1,-1,160,162,-1,-1,-1,-1,-1,164,-1,-1,166,168,170,-1,-1,-1,172,-1,-1,-1,174,176,178,-1,180,-1,182,-1,184,-1,-1,-1,-1,-1,-1,-1,-1,-1,-1,-1,-1,-1,-1,-1,-1,-1,-1,-1,-1,-1,-1,-1,-1,-1,-1,-1],"split_conditions":[1.7205696E9,-1.7931456E-3,1.7238474E9,2.9147E1,-8.8120174E-1,-2.4110986E-1,-9.233296E-1,6.234898E-1,1.720458E9,1.718208E9,-8.660254E-1,-5.973184E-1,-1.9174768E-1,1.7263188E9,1.7244756E9,-9.238795E-1,-1.5537173E-1,2.6578194E1,1.3712903E1,-8.947209E-1,-9.238795E-1,1.0446048E1,2.0000526E1,7.7317E1,-9.0580195E-1,1.9123E1,0E0,1.7258382E9,1.2882E1,1.9047E1,-4.1784534E-1,3.0931643E1,5.2395397E1,2.3424782E1,4.0709206E1,-9.1499823E-1,-7.0710677E-1,2.0338E1,1.7186508E9,-5.348322E1,-2.5881904E-1,-9.45713E-1,2.7715E1,1.720791E9,3.382E1,2.1393E1,-9.857075E-1,1.7257284E9,1.064E1,2.72E-1,-7.0710677E-1,6.234898E-1,-7.7261215E-1,9.755E1,2.459E1,-6.087614E-1,4.514603E1,1.33543825E1,2.7206806E1,2.2755323E1,1.0161362E1,2.6033691E1,7.818315E-1,-4.681248E1,9.1333E1,1.7211546E9,-9.208315E-1,6.234898E-1,-4.561466E1,-5.8868623E0,-1.1763268E1,-9.773198E-1,-2.6135574E1,-5.1881804E0,-1.2822242E1,2.4049199E0,2.0142E1,7.091648E-1,2.0735E1,-2.2252093E-1,1.7262072E9,-5.643405E-1,1.7264285E9,-6.507345E0,-1.9061021E0,1.414E1,-5E-1,-2.0029842E1,-6.087614E-1,1.7245116E9,6.087614E-1,1.7255808E9,2.6183E1,2.681709E1,3.719553E1,1E0,1.7188722E9,-3.0989899E1,-1.0627433E1,2.958E1,-3.9418896E1,-4.9897465E1,-6.464121E1,0E0,8.7767E1,-1.1111035E1,-1.8357914E1,1.4604397E-1,-7.6264567E0,-6.226599E0,-2.5349088E0,-8.0105715E0,-1.6249437E1,-9.599327E-1,-4.734376E0,1.7260974E9,-2.6675884E1,-2.5881904E-1,3.3797428E-1,1.1632E1,7.3567E1,1E0,1E0,-1.5597337E1,-8.267007E0,9.34127E-1,-8.532018E-1,2.5553814E1,4.6895805E1,5.1753426E-1,5.0252205E-1,1.5873508E0,-2.1713686E0,3.550402E1,2.3552454E1,3.0548344E1,1.5433E1,-2.5124203E1,-3.8221996E1,2.597E0,0E0,0E0,-2.1905699E1,-1.869224E1,-1.0774448E1,8.660254E-1,-1.234926E1,2.0151453E0,6.1692014E0,-4.2261827E-1,-3.9073113E-1,1.2246469E-16,-1.609804E1,-8.660254E-1,6.6010004E-1,5.9E-1,-2.706833E0,-7.933533E-1,2.5802908E1,1.4714106E1,6.9544964E0,1.9570992E0,5.5359387E0,2.4617487E1,1.5060225E1,-2.8583164E1,-1.508911E1,-2.22556E1,-1.2622534E1,-1.8884884E1,-3.786096E1,-2.1665018E1,-1.217356E1,-5.478129E0,-1.5075049E0,-6.2100706E0,-1.0369394E1,-7.2372465E0,-1.2258947E1,-5.750573E-1,-2.9882228E0,-3.5270963E0,-8.038228E0,1.3250828E1,2.1021498E1],"split_indices":[7,11,7,3,12,11,11,14,7,7,9,11,11,7,7,9,11,0,0,12,9,0,0,1,12,3,9,7,3,3,12,0,0,0,0,12,9,3,7,0,10,12,3,7,3,3,12,7,3,2,9,14,11,1,3,9,0,0,0,0,0,0,13,0,1,7,12,14,0,0,0,12,0,0,0,0,3,5,3,14,7,0,7,0,0,3,10,0,9,7,10,7,3,0,0,14,7,0,0,3,0,0,0,13,1,0,0,0,0,0,0,0,0,11,0,7,0,9,0,3,1,14,14,0,0,0,11,0,0,4,5,0,0,0,0,0,3,0,0,2,9,6,0,0,0,9,0,0,0,4,4,4,0,10,0,2,0,9,0,0,0,0,0,0,0,0,0,0,0,0,0,0,0,0,0,0,0,0,0,0,0,0,0,0,0],"split_type":[0,0,0,0,0,0,0,0,0,0,0,0,0,0,0,0,0,0,0,0,0,0,0,0,0,0,0,0,0,0,0,0,0,0,0,0,0,0,0,0,0,0,0,0,0,0,0,0,0,0,0,0,0,0,0,0,0,0,0,0,0,0,0,0,0,0,0,0,0,0,0,0,0,0,0,0,0,0,0,0,0,0,0,0,0,0,0,0,0,0,0,0,0,0,0,0,0,0,0,0,0,0,0,0,0,0,0,0,0,0,0,0,0,0,0,0,0,0,0,0,0,0,0,0,0,0,0,0,0,0,0,0,0,0,0,0,0,0,0,0,0,0,0,0,0,0,0,0,0,0,0,0,0,0,0,0,0,0,0,0,0,0,0,0,0,0,0,0,0,0,0,0,0,0,0,0,0,0,0,0,0,0,0,0,0],"sum_hessian":[5.018E3,1.87E3,3.148E3,4.28E2,1.442E3,1.747E3,1.401E3,3.93E2,3.5E1,1.312E3,1.3E2,1.534E3,2.13E2,4.34E2,9.67E2,1.65E2,2.28E2,2E1,1.5E1,5.01E2,8.11E2,1.7E1,1.13E2,4.73E2,1.061E3,1.38E2,7.5E1,3.58E2,7.6E1,3.4E2,6.27E2,1.7E1,1.48E2,1.4E1,2.14E2,4.25E2,7.6E1,8.3E1,7.28E2,4.11E2,6.2E1,5.19E2,5.42E2,5.7E1,8.1E1,2.9E1,4.6E1,1E2,2.58E2,5.1E1,2.5E1,2.63E2,7.7E1,5.3E2,9.7E1,2.93E2,1.32E2,1E1,6.6E1,7.1E1,1.2E1,2.06E2,5.22E2,3E1,3.2E1,2.34E2,2.85E2,4.66E2,7.6E1,1.6E1,4.1E1,7.1E1,1E1,1.3E1,1.6E1,1.6E1,3E1,3.9E1,6.1E1,5.5E1,2.03E2,1.1E1,4E1,1.1E1,1.4E1,1.64E2,9.9E1,3.4E1,4.3E1,4.79E2,5.1E1,7.7E1,2E1,8E1,2.13E2,3.63E2,1.59E2,2.1E1,1.1E1,9.7E1,1.37E2,1.85E2,1E2,2.41E2,2.25E2,2.8E1,4.3E1,1.8E1,1.2E1,1.3E1,2.6E1,3.7E1,2.4E1,3.7E1,1.8E1,1.65E2,3.8E1,3E1,1E1,8.7E1,7.7E1,4.4E1,5.5E1,2E1,2.3E1,1.4E1,4.65E2,3.6E1,1.5E1,4.3E1,3.4E1,1E1,1E1,3.12E2,5.1E1,7.9E1,8E1,7.7E1,2E1,1.58E2,8.3E1,1.84E2,4.1E1,1.6E1,2.1E1,1.26E2,3.9E1,1E1,2E1,2E1,6.7E1,5E1,2.7E1,2.9E1,1.5E1,3.8E1,1.7E1,3.12E2,1.53E2,3.2E1,1.1E1,1E1,2.4E1,6.1E1,1.9E1,1.43E2,1.5E1,3.7E1,4.6E1,1E1,1.74E2,1E2,2.6E1,1E1,1E1,4.2E1,2.5E1,2.7E1,2.3E1,1.4E1,1.5E1,1.1E1,2.7E1,5.4E1,2.58E2],"tree_param":{"num_deleted":"0","num_feature":"17","num_nodes":"185","size_leaf_vector":"1"}},{"base_weights":[-1.4635731E0,1.9219647E2,-1.1743079E2,1.761823E2,2.4724297E2,-2.2142006E2,1.6451748E1,1.8274452E2,1.0748973E2,2.6877515E2,1.839691E2,-2.4298206E2,-6.7786705E1,-7.604799E1,5.8358532E1,1.684698E2,2.062593E2,8.950773E0,1.6862103E1,3.196512E1,2.842211E2,3.0050905E1,1.2014265E1,-2.802585E2,-2.1944363E2,-4.2699505E1,-9.621026E1,-9.2622116E1,2.435795E0,-5.439003E1,1.1616344E2,1.3051476E2,1.7479253E2,2.166557E2,1.4756546E2,3.1031301E1,4.4328556E1,-2.895787E2,-1.3105522E2,-2.5102716E2,-1.3773425E2,-8.170909E1,-2.5210407E1,-1.0800422E1,-1.8148932E1,-1.0959635E2,-5.5284676E1,2.7700571E1,-1.5879754E1,-3.7907486E1,-8.8327286E1,6.0959103E1,1.3402383E2,8.24583E0,1.3752048E2,1.6464098E2,3.0711432E1,1.9611539E2,3.8629017E1,1.3428083E1,2.3739553E1,-5.095803E1,-2.6628836E2,-3.092224E1,-1.3089662E1,-1.8724925E2,-2.7330008E2,-2.823262E1,-1.0710118E2,-1.7001095E1,-7.7360277E0,2.5817482E0,-3.3814262E1,-2.028308E1,-8.5680984E1,-2.3843254E1,-7.018915E1,2.0624435E0,4.9179707E0,-6.1687193E0,-5.3614593E0,-4.9861515E1,-1.8986416E1,-1.0604636E2,-6.850426E1,3.0928047E1,8.61614E1,1.2576406E2,1.9457843E2,2.3229727E1,1.1299807E2,1.7480884E2,1.2512208E2,1.927849E1,3.0852612E1,-4.137182E1,-2.8741041E1,-1.6764923E2,-3.6819298E1,-2.1101279E2,-3.0672726E2,-1.5995818E2,-9.50745E1,-2.0764221E1,-8.2762E0,-9.042911E1,-4.6664567E0,-5.4523506E0,-2.2090454E0,-1.1641494E1,-5.4181604E0,-2.7585015E0,4.937596E-1,-3.1066185E1,-5.5581085E1,-5.92207E0,-3.0882725E1,-7.202253E0,-1.7645496E1,-6.8725424E0,-1.2979286E1,5.2530773E1,7.1329117E0,1.4390996E1,4.7609897E0,1.104302E0,1.2975462E2,2.2179625E1,4.161186E1,1.8517529E1,9.592152E0,3.0584593E1,2.2875565E1,8.415771E0,1.2992305E2,-1.9158201E1,-2.7102638E1,-1.6514987E2,-3.6999893E1,-4.147067E1,-5.667469E1,-1.27062E1,-2.8247217E1,-1.827316E1,-8.251211E1,-1.0343286E1,-5.349347E0,-1.0044395E2,-8.111387E0,-6.9038854E0,-1.6917866E1,-9.535904E0,-5.2723827E0,-1.095303E1,5.7607204E-1,-3.7908955E1,-2.0151057E0,8.996342E0,3.6143577E0,2.1332758E1,-2.7150896E0,1.4181654E2,1.1095172E2,2.0716686E1,1.3392377E1,-2.880439E1,-1.563709E1,-4.3751864E0,-1.4489935E1,-3.904743E0,2.6115124E0,-1.6479488E1,-7.8634624E0,-3.2999606E0,-1.3073024E0,-5.026382E-1,-2.4497433E0,-6.862855E0,-3.3029077E0,1.925275E0,4.0100737E0,1.9245375E1,2.4452444E1,1.70742E1,8.116218E0],"categories":[],"categories_nodes":[],"categories_segments":[],"categories_sizes":[],"default_left":[0,0,0,0,0,0,0,0,0,0,0,0,0,0,0,0,0,0,0,0,0,0,0,0,0,0,0,0,0,0,0,0,0,0,0,0,0,0,0,0,0,0,0,0,0,0,0,0,0,0,0,0,0,0,0,0,0,0,0,0,0,0,0,0,0,0,0,0,0,0,0,0,0,0,0,0,0,0,0,0,0,0,0,0,0,0,0,0,0,0,0,0,0,0,0,0,0,0,0,0,0,0,0,0,0,0,0,0,0,0,0,0,0,0,0,0,0,0,0,0,0,0,0,0,0,0,0,0,0,0,0,0,0,0,0,0,0,0,0,0,0,0,0,0,0,0,0,0,0,0,0,0,0,0,0,0,0,0,0,0,0,0,0,0,0,0,0,0,0,0,0,0,0,0,0,0,0,0,0,0,0,0,0,0,0],"id":8,"left_children":[1,3,5,7,9,11,13,15,17,19,21,23,25,27,29,31,33,-1,-1,-1,35,-1,-1,37,39,41,43,45,47,49,51,53,55,57,59,-1,-1,61,63,65,67,69,71,-1,-1,73,75,77,79,81,83,85,87,-1,89,91,-1,93,-1,-1,-1,-1,95,-1,-1,97,99,-1,101,-1,-1,-1,103,-1,105,107,109,-1,-1,111,-1,113,115,117,119,121,123,125,127,-1,129,131,133,-1,-1,-1,-1,135,-1,137,139,141,143,145,-1,147,-1,-1,-1,-1,-1,-1,-1,149,151,153,155,-1,-1,-1,-1,157,159,-1,-1,-1,161,-1,-1,-1,-1,-1,-1,-1,163,-1,-1,165,-1,-1,-1,-1,-1,-1,167,169,-1,171,-1,-1,173,-1,-1,175,-1,177,-1,-1,-1,179,-1,181,183,-1,-1,-1,-1,-1,-1,-1,-1,-1,-1,-1,-1,-1,-1,-1,-1,-1,-1,-1,-1,-1,-1],"loss_changes":[1.1295246E8,1.540728E6,4.380636E7,6.07744E5,4.33178E5,5.820032E6,5.3525915E6,3.53E5,1.1278375E4,9.9598E4,1.449985E5,1.192624E6,1.4651794E5,5.611585E5,6.207123E6,1.40204E5,2.12562E5,0E0,0E0,0E0,2.3108E4,0E0,0E0,7.1692E5,2.391796E6,7.7810266E4,3.65665E4,2.0847575E5,3.7197035E4,1.7160169E5,5.97097E5,4.8759E4,1.21742E5,2.02362E5,1.050875E4,0E0,0E0,3.87876E5,8.079406E4,8.4194E5,3.65147E5,1.8527406E4,3.3977633E4,0E0,0E0,1.1400525E5,4.9871062E4,1.0041094E3,8.251344E3,4.7600375E4,1.614975E4,1.12536875E5,1.68888E5,0E0,1.03325E3,1.59671E5,0E0,1.02179E5,0E0,0E0,0E0,0E0,1.12934E5,0E0,0E0,9.89E4,8.7732E5,0E0,7.01995E4,0E0,0E0,0E0,1.7360375E4,0E0,2.6191875E4,3.1439902E3,1.1249219E4,0E0,0E0,4.2026494E3,0E0,9.532094E3,1.3496033E4,1.685825E4,1.19080625E4,3.8246656E4,3.5391312E4,1.972485E5,8.7703125E4,0E0,7.3615E3,1.927E5,2.008675E4,0E0,0E0,0E0,0E0,1.1847E4,0E0,1.86425E5,4.18286E5,1.6418125E4,2.216E4,6.69209E3,0E0,2.8560625E4,0E0,0E0,0E0,0E0,0E0,0E0,0E0,5.6251094E3,9.682375E3,2.427183E3,4.2088906E3,0E0,0E0,0E0,0E0,4.0957656E3,1.5264774E4,0E0,0E0,0E0,4.9355E4,0E0,0E0,0E0,0E0,0E0,0E0,0E0,1.701375E3,0E0,0E0,8.8109E4,0E0,0E0,0E0,0E0,0E0,0E0,7.385006E4,1.5848474E4,0E0,2.3841562E4,0E0,0E0,3.7295117E2,0E0,0E0,1.0836362E3,0E0,9.8439844E2,0E0,0E0,0E0,1.7246094E2,0E0,1.1477E4,8.24E3,0E0,0E0,0E0,0E0,0E0,0E0,0E0,0E0,0E0,0E0,0E0,0E0,0E0,0E0,0E0,0E0,0E0,0E0,0E0,0E0,0E0,0E0],"parents":[2147483647,0,0,1,1,2,2,3,3,4,4,5,5,6,6,7,7,8,8,9,9,10,10,11,11,12,12,13,13,14,14,15,15,16,16,20,20,23,23,24,24,25,25,26,26,27,27,28,28,29,29,30,30,31,31,32,32,33,33,34,34,37,37,38,38,39,39,40,40,41,41,42,42,45,45,46,46,47,47,48,48,49,49,50,50,51,51,52,52,54,54,55,55,57,57,62,62,65,65,66,66,68,68,72,72,74,74,75,75,76,76,79,79,81,81,82,82,83,83,84,84,85,85,86,86,87,87,88,88,90,90,91,91,92,92,97,97,99,99,100,100,101,101,102,102,103,103,105,105,113,113,114,114,115,115,116,116,121,121,122,122,126,126,134,134,137,137,144,144,145,145,147,147,150,150,153,153,155,155,159,159,161,161,162,162],"right_children":[2,4,6,8,10,12,14,16,18,20,22,24,26,28,30,32,34,-1,-1,-1,36,-1,-1,38,40,42,44,46,48,50,52,54,56,58,60,-1,-1,62,64,66,68,70,72,-1,-1,74,76,78,80,82,84,86,88,-1,90,92,-1,94,-1,-1,-1,-1,96,-1,-1,98,100,-1,102,-1,-1,-1,104,-1,106,108,110,-1,-1,112,-1,114,116,118,120,122,124,126,128,-1,130,132,134,-1,-1,-1,-1,136,-1,138,140,142,144,146,-1,148,-1,-1,-1,-1,-1,-1,-1,150,152,154,156,-1,-1,-1,-1,158,160,-1,-1,-1,162,-1,-1,-1,-1,-1,-1,-1,164,-1,-1,166,-1,-1,-1,-1,-1,-1,168,170,-1,172,-1,-1,174,-1,-1,176,-1,178,-1,-1,-1,180,-1,182,184,-1,-1,-1,-1,-1,-1,-1,-1,-1,-1,-1,-1,-1,-1,-1,-1,-1,-1,-1,-1,-1,-1],"split_conditions":[1.7205696E9,1.7197938E9,1.7238834E9,-8.8120174E-1,-9.926188E-1,-2.4110986E-1,-9.233296E-1,3.0218756E-1,-9.238795E-1,-6.087614E-1,2.958E1,-5.672926E-1,1.720791E9,1.7263188E9,1.7244756E9,-8.660254E-1,-8.947209E-1,8.950773E0,1.6862103E1,3.196512E1,-9.9966663E-1,3.0050905E1,1.2014265E1,9.35E1,-8.760647E-1,2.9083E1,2.2337E1,-9.393651E-1,9.827E0,1.7713E1,-8.9916056E-1,3.8229E1,1.7194248E9,-9.1499823E-1,-5E-1,3.1031301E1,4.4328556E1,-2.2252093E-1,-1.3052619E-1,-9.516091E-1,-5.374004E-1,-5E-1,-9.857075E-1,-1.0800422E1,-1.8148932E1,7.1933E1,1.7257284E9,1.103E0,1.5777E1,6.234898E-1,-7.7261215E-1,6.2967E1,9.755E1,8.24583E0,1.5354E1,1.7191656E9,3.0711432E1,-8.660254E-1,3.8629017E1,1.3428083E1,2.3739553E1,-5.095803E1,-7.214126E-1,-3.092224E1,-1.3089662E1,3.0423E1,-4.2077556E-1,-2.823262E1,-8.660254E-1,-1.7001095E1,-7.7360277E0,2.5817482E0,2.0495E1,-2.028308E1,9.03E1,7.091648E-1,2.567E0,2.0624435E0,4.9179707E0,-6.087614E-1,-5.3614593E0,1.2325E1,-5E-1,1.9146E1,2.207E1,1.725507E9,1.7255808E9,1.7245116E9,7.0710677E-1,2.3229727E1,7.818315E-1,1.9526619E-1,-9.9755573E-1,1.927849E1,3.0852612E1,-4.137182E1,-2.8741041E1,1.7210808E9,-3.6819298E1,-8.92952E-1,-9.208315E-1,1.888E1,-8.669206E-1,1.7207172E9,-8.2762E0,2.5881904E-1,-4.6664567E0,-5.4523506E0,-2.2090454E0,-1.1641494E1,-5.4181604E0,-2.7585015E0,4.937596E-1,0E0,7.933533E-1,1E0,1E0,-7.202253E0,-1.7645496E1,-6.8725424E0,-1.2979286E1,2.5492E1,2.4965E1,1.4390996E1,4.7609897E0,1.104302E0,1.6397E1,2.2179625E1,4.161186E1,1.8517529E1,9.592152E0,3.0584593E1,2.2875565E1,8.415771E0,1.8394E1,-1.9158201E1,-2.7102638E1,-8.980591E-1,-3.6999893E1,-4.147067E1,-5.667469E1,-1.27062E1,-2.8247217E1,-1.827316E1,1.7224128E9,4.3083E1,-5.349347E0,2.18E0,-8.111387E0,-6.9038854E0,4.9E-1,-9.535904E0,-5.2723827E0,-8.660254E-1,5.7607204E-1,9.238795E-1,-2.0151057E0,8.996342E0,3.6143577E0,5.785E1,-2.7150896E0,7.818315E-1,3.1558E1,2.0716686E1,1.3392377E1,-2.880439E1,-1.563709E1,-4.3751864E0,-1.4489935E1,-3.904743E0,2.6115124E0,-1.6479488E1,-7.8634624E0,-3.2999606E0,-1.3073024E0,-5.026382E-1,-2.4497433E0,-6.862855E0,-3.3029077E0,1.925275E0,4.0100737E0,1.9245375E1,2.4452444E1,1.70742E1,8.116218E0],"split_indices":[7,7,7,12,12,11,11,11,9,9,3,11,7,7,7,9,12,0,0,0,12,0,0,1,12,1,0,11,3,3,11,1,7,12,9,0,0,14,10,12,11,9,12,0,0,1,7,2,3,14,11,1,1,0,0,7,0,9,0,0,0,0,12,0,0,3,11,0,9,0,0,0,3,0,1,5,2,0,0,9,0,0,10,0,3,7,7,7,10,0,13,11,12,0,0,0,0,7,0,12,12,3,12,7,0,10,0,0,0,0,0,0,0,13,9,14,14,0,0,0,0,0,3,0,0,0,0,0,0,0,0,0,0,0,0,0,0,12,0,0,0,0,0,0,7,1,0,2,0,0,2,0,0,10,0,9,0,0,0,1,0,13,3,0,0,0,0,0,0,0,0,0,0,0,0,0,0,0,0,0,0,0,0,0,0],"split_type":[0,0,0,0,0,0,0,0,0,0,0,0,0,0,0,0,0,0,0,0,0,0,0,0,0,0,0,0,0,0,0,0,0,0,0,0,0,0,0,0,0,0,0,0,0,0,0,0,0,0,0,0,0,0,0,0,0,0,0,0,0,0,0,0,0,0,0,0,0,0,0,0,0,0,0,0,0,0,0,0,0,0,0,0,0,0,0,0,0,0,0,0,0,0,0,0,0,0,0,0,0,0,0,0,0,0,0,0,0,0,0,0,0,0,0,0,0,0,0,0,0,0,0,0,0,0,0,0,0,0,0,0,0,0,0,0,0,0,0,0,0,0,0,0,0,0,0,0,0,0,0,0,0,0,0,0,0,0,0,0,0,0,0,0,0,0,0,0,0,0,0,0,0,0,0,0,0,0,0,0,0,0,0,0,0],"sum_hessian":[5.024E3,1.881E3,3.143E3,1.466E3,4.15E2,1.768E3,1.375E3,1.334E3,1.32E2,3.03E2,1.12E2,1.549E3,2.19E2,4.28E2,9.47E2,8.44E2,4.9E2,1.5E1,1.17E2,7.4E1,2.29E2,9.5E1,1.7E1,5.88E2,9.61E2,1.2E2,9.9E1,3.53E2,7.5E1,3.21E2,6.26E2,1.29E2,7.15E2,4.1E2,8E1,3.4E1,1.95E2,5.51E2,3.7E1,6.89E2,2.72E2,3.4E1,8.6E1,5.5E1,4.4E1,2.39E2,1.14E2,3.1E1,4.4E1,2.2E2,1.01E2,1.56E2,4.7E2,1.3E1,1.16E2,5.45E2,1.7E2,2.82E2,1.28E2,1.6E1,6.4E1,1.65E2,3.86E2,1E1,2.7E1,1.85E2,5.04E2,9.8E1,1.74E2,1.3E1,2.1E1,1.4E1,7.2E1,1.1E2,1.29E2,3.9E1,7.5E1,1.1E1,2E1,3.2E1,1.2E1,1.32E2,8.8E1,4.7E1,5.4E1,7.4E1,8.2E1,4.21E2,4.9E1,6E1,5.6E1,4.26E2,1.19E2,3.8E1,2.44E2,3.39E2,4.7E1,1.46E2,3.9E1,1.83E2,3.21E2,2.6E1,1.48E2,4.8E1,2.4E1,1.17E2,1.2E1,1.3E1,2.6E1,5.9E1,1.6E1,1.3E1,1.9E1,3.5E1,9.7E1,4.4E1,4.4E1,1E1,3.7E1,2.8E1,2.6E1,3.7E1,3.7E1,6.8E1,1.4E1,1.4E1,4.07E2,3.6E1,1.3E1,4.3E1,1.3E1,1.79E2,2.47E2,1E1,1.09E2,4.2E1,1.04E2,8.6E1,9.7E1,2.32E2,8.9E1,1E1,1.6E1,4E1,1.08E2,3.1E1,1.7E1,8.8E1,2.9E1,1.4E1,2.1E1,6.6E1,3.1E1,2.9E1,1.5E1,2.9E1,1.5E1,2.7E1,1E1,2.4E1,1.3E1,2.37E2,1.7E2,8.6E1,2.3E1,5.6E1,3E1,2.4E1,8.4E1,2E1,1.1E1,7.1E1,1.7E1,1E1,1.1E1,1.4E1,1.5E1,1.6E1,1.3E1,1.3E1,1.1E1,1.54E2,8.3E1,1.6E2,1E1],"tree_param":{"num_deleted":"0","num_feature":"17","num_nodes":"185","size_leaf_vector":"1"}},{"base_weights":[-1.6722947E0,1.6408124E2,-1.008023E2,2.1064264E2,1.4999565E2,-1.90852E2,1.1717176E1,1.6925351E2,2.3222806E2,1.5533403E2,9.064936E1,-2.0956882E2,-5.8597927E1,-6.383237E1,4.6315228E1,1.813489E2,1.0627239E1,2.6415688E1,3.710465E1,1.4285814E2,1.748098E2,6.1323338E1,9.957095E1,-2.5100317E2,-1.9058038E2,-3.8657715E1,-8.258936E1,-7.8810936E1,2.7449145E0,-4.9377445E1,9.7755226E1,1.3889847E1,1.8929858E2,1.2169819E2,1.5186961E2,1.8408496E2,1.2598022E2,5.742186E0,1.1710093E1,1.1104432E1,1.6599356E1,-2.5383754E2,-1.5884889E1,-2.2686353E2,-1.5473973E2,-7.083124E1,-2.4597559E1,-6.0749516E1,-1.5602496E1,-9.35787E1,-4.807173E1,1.732335E1,-2.132976E1,-3.9006516E1,-8.01534E1,5.8550343E1,1.1557437E2,1.27399435E1,3.0298738E1,1.2515083E2,7.6355934E0,1.6207198E2,1.8871449E1,1.6710886E2,3.282149E1,1.1166714E1,2.0095118E1,-2.653069E2,-3.0133968E1,-1.7116003E2,-2.6985046E2,-1.4323347E2,-3.733435E1,-1.5296382E1,-7.030351E0,1.7640817E0,-3.2733257E1,-6.058277E0,-1.0421391E1,-5.1955708E1,-1.0293195E2,-6.048967E1,-2.0896215E1,2.2850618E1,-7.749112E-1,-1.1029105E1,-5.253972E0,-4.9971287E1,-1.952009E1,-1.4678988E1,-6.0956303E1,6.960028E1,1.2923069E1,1.1108608E2,3.1265036E1,1.1288931E2,2.2163965E1,1.7287875E2,1.3308415E2,1.9413029E1,2.6995895E1,-2.877593E2,-2.298573E2,-1.5009174E2,-3.16969E1,-3.643075E1,-4.7171413E1,-1.6075887E2,-1.0696069E2,-1.4074807E1,-4.1661137E1,-1.7746434E-1,-6.622228E1,-9.1762794E1,-1.9951233E1,-4.185543E1,-1.1309535E1,-4.8481407E0,-1.8366084E0,4.470671E0,-6.076968E-3,-3.356483E0,3.6010885E-1,-3.1254873E1,-5.838073E1,-7.699092E0,-1.3426508E1,-1.1943249E1,-5.6198263E0,7.571321E1,6.160927E-1,4.1112866E0,-4.013923E0,-1.8941492E0,1.1549987E2,1.859752E1,8.07083E1,2.6846632E1,1.7561691E1,2.0758038E1,1.0793E1,-3.243759E1,-4.5155125E1,-1.4937315E2,-3.9000484E1,-1.762291E1,-2.569948E1,-1.3646245E2,-1.8208554E2,-8.453459E1,-2.4318375E1,1.2215677E0,-4.1004715E0,-2.4886816E1,-5.1465927E1,-5.3777294E0,-1.1029359E1,-1.040524E2,-8.654916E0,-6.883256E0,-3.3995805E0,-6.5261908E0,-1.5206244E1,-1.3758128E1,-5.047869E1,-3.7164944E-1,-1.873723E1,1.2880312E1,5.451845E1,1.9769176E1,1.0292364E2,1.3353968E1,5.613147E0,-1.2881871E1,-2.6480005E1,-2.585076E1,-1.7675953E1,-1.7736713E1,-2.8840675E1,-1.8900457E1,-8.944392E0,-1.2385077E0,-5.2903104E0,-9.799576E0,-4.9316564E0,-1.8017021E1,-1.1547539E1,-2.840313E0,-1.2059141E0,-8.557142E0,-4.681264E0,-9.6646E-1,8.974664E-1,-3.5457222E0,-1.1567976E0,4.0499616E0,8.870507E0,1.1501236E1,1.6399944E1],"categories":[],"categories_nodes":[],"categories_segments":[],"categories_sizes":[],"default_left":[0,0,0,0,0,0,0,0,0,0,0,0,0,0,0,0,0,0,0,0,0,0,0,0,0,0,0,0,0,0,0,0,0,0,0,0,0,0,0,0,0,0,0,0,0,0,0,0,0,0,0,0,0,0,0,0,0,0,0,0,0,0,0,0,0,0,0,0,0,0,0,0,0,0,0,0,0,0,0,0,0,0,0,0,0,0,0,0,0,0,0,0,0,0,0,0,0,0,0,0,0,0,0,0,0,0,0,0,0,0,0,0,0,0,0,0,0,0,0,0,0,0,0,0,0,0,0,0,0,0,0,0,0,0,0,0,0,0,0,0,0,0,0,0,0,0,0,0,0,0,0,0,0,0,0,0,0,0,0,0,0,0,0,0,0,0,0,0,0,0,0,0,0,0,0,0,0,0,0,0,0,0,0,0,0,0,0,0,0,0,0,0,0,0,0,0,0,0,0],"id":9,"left_children":[1,3,5,7,9,11,13,15,17,19,21,23,25,27,29,31,-1,-1,-1,33,35,37,39,41,43,45,47,49,51,53,55,-1,57,59,61,63,65,-1,-1,-1,-1,67,-1,69,71,73,75,77,-1,79,81,83,85,87,89,91,93,-1,-1,95,-1,97,-1,99,-1,-1,-1,101,-1,103,105,107,-1,-1,-1,-1,109,-1,-1,111,113,115,117,119,-1,121,-1,123,125,-1,127,129,131,133,-1,135,-1,137,139,-1,-1,141,143,145,-1,-1,-1,147,149,151,153,-1,155,157,-1,159,-1,-1,-1,-1,-1,-1,-1,161,163,-1,165,-1,-1,167,-1,-1,-1,-1,169,-1,171,-1,-1,-1,-1,-1,-1,173,-1,-1,-1,175,177,179,-1,-1,-1,181,183,-1,-1,185,-1,-1,-1,-1,187,-1,189,191,193,-1,195,-1,197,-1,-1,-1,-1,-1,-1,-1,-1,-1,-1,-1,-1,-1,-1,-1,-1,-1,-1,-1,-1,-1,-1,-1,-1,-1,-1,-1,-1],"loss_changes":[8.27054E7,1.148364E6,3.1920686E7,2.76632E5,4.22146E5,4.297008E6,3.6745305E6,1.52462E5,1.06915E5,2.54666E5,1.6066625E4,1.0736E6,9.655044E4,4.41308E5,4.757141E6,4.97245E4,0E0,0E0,0E0,1.0653E5,1.65911E5,5.628328E3,3.0596875E3,1.2075E5,1.283992E6,5.1854094E4,2.7521625E4,1.5109375E5,3.0378846E4,9.9256125E4,4.195995E5,0E0,1.114465E5,4.603925E4,9.69E4,1.43553E5,7.846E3,0E0,0E0,0E0,0E0,1.37048E5,0E0,1.12225E6,4.86005E5,1.3937719E4,2.8214621E4,1.6553125E3,0E0,7.8709E4,3.7738688E4,7.0455566E3,3.404711E3,5.2423938E4,1.10595625E4,9.901775E4,1.13844E5,0E0,0E0,2.11885E4,0E0,6.2008E4,0E0,7.4008E4,0E0,0E0,0E0,1.14278E5,0E0,1.086815E5,1.41946E5,2.63726E5,0E0,0E0,0E0,0E0,1.0856969E4,0E0,0E0,3.561225E4,3.0538375E4,1.3770719E4,3.0076484E3,6.9711934E3,0E0,3.64637E3,0E0,2.0542906E4,1.6803875E4,0E0,1.1927172E4,6.368275E4,2.638336E4,2.30655E5,0E0,3.14225E4,0E0,3.177E4,9.02175E3,0E0,0E0,1.7334E4,2.67472E5,5.60045E4,0E0,0E0,0E0,9.9686E4,1.67975E5,9.068213E3,4.470703E3,0E0,9.400625E2,4.6183375E4,0E0,2.0513281E2,0E0,0E0,0E0,0E0,0E0,0E0,0E0,9.086223E3,1.57185625E4,0E0,5.8692783E3,0E0,0E0,1.79825E4,0E0,0E0,0E0,0E0,4.2883E4,0E0,8.409969E3,0E0,0E0,0E0,0E0,0E0,0E0,4.107825E4,0E0,0E0,0E0,5.328175E4,3.9886E4,1.0770581E5,0E0,0E0,0E0,3.1512441E3,1.2455391E3,0E0,0E0,2.02215E4,0E0,0E0,0E0,0E0,2.699873E2,0E0,6.693953E3,1.1698055E3,2.662168E3,0E0,2.1687188E3,0E0,1.51115E4,0E0,0E0,0E0,0E0,0E0,0E0,0E0,0E0,0E0,0E0,0E0,0E0,0E0,0E0,0E0,0E0,0E0,0E0,0E0,0E0,0E0,0E0,0E0,0E0,0E0,0E0,0E0,0E0],"parents":[2147483647,0,0,1,1,2,2,3,3,4,4,5,5,6,6,7,7,8,8,9,9,10,10,11,11,12,12,13,13,14,14,15,15,19,19,20,20,21,21,22,22,23,23,24,24,25,25,26,26,27,27,28,28,29,29,30,30,32,32,33,33,34,34,35,35,36,36,41,41,43,43,44,44,45,45,46,46,47,47,49,49,50,50,51,51,52,52,53,53,54,54,55,55,56,56,59,59,61,61,63,63,67,67,69,69,70,70,71,71,76,76,79,79,80,80,81,81,82,82,83,83,85,85,87,87,88,88,90,90,91,91,92,92,93,93,95,95,97,97,98,98,101,101,102,102,103,103,107,107,108,108,109,109,110,110,112,112,113,113,115,115,123,123,124,124,126,126,129,129,134,134,136,136,143,143,147,147,148,148,149,149,153,153,154,154,157,157,162,162,164,164,165,165,166,166,168,168,170,170],"right_children":[2,4,6,8,10,12,14,16,18,20,22,24,26,28,30,32,-1,-1,-1,34,36,38,40,42,44,46,48,50,52,54,56,-1,58,60,62,64,66,-1,-1,-1,-1,68,-1,70,72,74,76,78,-1,80,82,84,86,88,90,92,94,-1,-1,96,-1,98,-1,100,-1,-1,-1,102,-1,104,106,108,-1,-1,-1,-1,110,-1,-1,112,114,116,118,120,-1,122,-1,124,126,-1,128,130,132,134,-1,136,-1,138,140,-1,-1,142,144,146,-1,-1,-1,148,150,152,154,-1,156,158,-1,160,-1,-1,-1,-1,-1,-1,-1,162,164,-1,166,-1,-1,168,-1,-1,-1,-1,170,-1,172,-1,-1,-1,-1,-1,-1,174,-1,-1,-1,176,178,180,-1,-1,-1,182,184,-1,-1,186,-1,-1,-1,-1,188,-1,190,192,194,-1,196,-1,198,-1,-1,-1,-1,-1,-1,-1,-1,-1,-1,-1,-1,-1,-1,-1,-1,-1,-1,-1,-1,-1,-1,-1,-1,-1,-1,-1,-1],"split_conditions":[1.7205696E9,-1.7931456E-3,1.7238474E9,-1.0381511E-1,-8.7967134E-1,-2.4110986E-1,-9.233296E-1,3.1558E1,-9.9966663E-1,3.0218756E-1,-5E-1,-5.973184E-1,-9.781476E-1,1.7263188E9,-5.8865535E-1,-1.5537173E-1,1.0627239E1,2.6415688E1,3.710465E1,-5E-1,-8.947209E-1,-8.268843E-1,-5E-1,9.5017E1,-9.0580195E-1,2.9083E1,2.2337E1,-9.393651E-1,1.2253E1,1.9047E1,-8.926289E-1,1.3889847E1,-8.660254E-1,2.958E1,-9.773198E-1,-9.1499823E-1,-7.933533E-1,5.742186E0,1.1710093E1,1.1104432E1,1.6599356E1,9.749279E-1,-1.5884889E1,-9.45713E-1,3.0007E1,-6.087614E-1,-9.857075E-1,-9.749849E-1,-1.5602496E1,9.835E0,-9.28876E-1,9.1333E1,1.5619E1,6.234898E-1,-7.7261215E-1,1.7255808E9,1.705863E-1,1.27399435E1,3.0298738E1,3.8268343E-1,7.6355934E0,7.818315E-1,1.8871449E1,-6.087614E-1,3.282149E1,1.1166714E1,2.0095118E1,6.234898E-1,-3.0133968E1,2.7715E1,-9.208315E-1,4.3388373E-1,-3.733435E1,-1.5296382E1,-7.030351E0,1.7640817E0,1.8135E1,-6.058277E0,-1.0421391E1,5.75E-1,1.7262072E9,1.855E1,7.091648E-1,1.7264285E9,-7.749112E-1,9.7E-1,-5.253972E0,1.3048E1,5.3683E1,-1.4678988E1,-6.087614E-1,2.6075E1,1.9607E1,1.7245116E9,3.1265036E1,1.6658E1,2.2163965E1,1E0,1.8802E1,1.9413029E1,2.6995895E1,1.7231453E9,-4.3388373E-1,-9.612287E-1,-3.16969E1,-3.643075E1,-4.7171413E1,6.234898E-1,1.7225226E9,-9.796137E-1,3.7017E1,-1.7746434E-1,7.7667E1,1.7260974E9,-1.9951233E1,2.853E0,-1.1309535E1,-4.8481407E0,-1.8366084E0,4.470671E0,-6.076968E-3,-3.356483E0,3.6010885E-1,0E0,1.7238834E9,-7.699092E0,-7.933533E-1,-1.1943249E1,-5.6198263E0,1.8987E1,6.160927E-1,4.1112866E0,-4.013923E0,-1.8941492E0,1.7248428E9,1.859752E1,7.818315E-1,2.6846632E1,1.7561691E1,2.0758038E1,1.0793E1,-3.243759E1,-4.5155125E1,-7.5124836E-1,-3.9000484E1,-1.762291E1,-2.569948E1,-3.8268343E-1,2.23E-1,-8.669206E-1,-2.4318375E1,1.2215677E0,-4.1004715E0,2.3931E1,4.2283E1,-5.3777294E0,-1.1029359E1,-9.4664156E-1,-8.654916E0,-6.883256E0,-3.3995805E0,-6.5261908E0,4.9E-1,-1.3758128E1,7.933533E-1,5.2991927E-1,1E0,1.2880312E1,-2.2252093E-1,1.9769176E1,-7.0710677E-1,1.3353968E1,5.613147E0,-1.2881871E1,-2.6480005E1,-2.585076E1,-1.7675953E1,-1.7736713E1,-2.8840675E1,-1.8900457E1,-8.944392E0,-1.2385077E0,-5.2903104E0,-9.799576E0,-4.9316564E0,-1.8017021E1,-1.1547539E1,-2.840313E0,-1.2059141E0,-8.557142E0,-4.681264E0,-9.6646E-1,8.974664E-1,-3.5457222E0,-1.1567976E0,4.0499616E0,8.870507E0,1.1501236E1,1.6399944E1],"split_indices":[7,11,7,11,12,11,11,3,12,11,9,11,12,7,12,11,0,0,0,9,12,5,10,1,12,1,0,11,0,3,11,0,9,3,12,12,9,0,0,0,0,13,0,12,3,9,12,12,0,0,11,1,0,14,11,7,6,0,0,10,0,13,0,9,0,0,0,14,0,3,12,13,0,0,0,0,0,0,0,2,7,0,5,7,0,2,0,3,1,0,9,0,3,7,0,0,0,14,0,0,0,7,13,12,0,0,0,14,7,12,1,0,1,7,0,2,0,0,0,0,0,0,0,13,7,0,10,0,0,0,0,0,0,0,7,0,13,0,0,0,0,0,0,12,0,0,0,9,2,12,0,0,0,0,1,0,0,11,0,0,0,0,2,0,9,5,14,0,14,0,9,0,0,0,0,0,0,0,0,0,0,0,0,0,0,0,0,0,0,0,0,0,0,0,0,0,0,0,0],"split_type":[0,0,0,0,0,0,0,0,0,0,0,0,0,0,0,0,0,0,0,0,0,0,0,0,0,0,0,0,0,0,0,0,0,0,0,0,0,0,0,0,0,0,0,0,0,0,0,0,0,0,0,0,0,0,0,0,0,0,0,0,0,0,0,0,0,0,0,0,0,0,0,0,0,0,0,0,0,0,0,0,0,0,0,0,0,0,0,0,0,0,0,0,0,0,0,0,0,0,0,0,0,0,0,0,0,0,0,0,0,0,0,0,0,0,0,0,0,0,0,0,0,0,0,0,0,0,0,0,0,0,0,0,0,0,0,0,0,0,0,0,0,0,0,0,0,0,0,0,0,0,0,0,0,0,0,0,0,0,0,0,0,0,0,0,0,0,0,0,0,0,0,0,0,0,0,0,0,0,0,0,0,0,0,0,0,0,0,0,0,0,0,0,0,0,0,0,0,0,0],"sum_hessian":[5.028E3,1.881E3,3.147E3,4.28E2,1.453E3,1.747E3,1.4E3,1.55E2,2.73E2,1.329E3,1.24E2,1.529E3,2.18E2,4.39E2,9.61E2,1.36E2,1.9E1,6.3E1,2.1E2,8.24E2,5.05E2,3.4E1,9E1,4.7E2,1.059E3,1.23E2,9.5E1,3.58E2,8.1E1,3.36E2,6.25E2,1.4E1,1.22E2,2.58E2,5.66E2,4.18E2,8.7E1,1.8E1,1.6E1,3.3E1,5.7E1,4.59E2,1.1E1,5.19E2,5.4E2,3.4E1,8.9E1,5.2E1,4.3E1,2.38E2,1.2E2,5.1E1,3E1,2.56E2,8E1,1.99E2,4.26E2,1.5E1,1.07E2,2.44E2,1.4E1,3.98E2,1.68E2,2.9E2,1.28E2,1.5E1,7.2E1,3.69E2,9E1,2.32E2,2.87E2,4.87E2,5.3E1,1.1E1,2.3E1,1.6E1,7.3E1,2E1,3.2E1,4.7E1,1.91E2,8E1,4E1,4.1E1,1E1,2E1,1E1,1.61E2,9.5E1,3.6E1,4.4E1,1.59E2,4E1,4.12E2,1.4E1,1.68E2,7.6E1,2.8E2,1.18E2,7.9E1,2.11E2,2.14E2,1.55E2,1.6E2,7.2E1,1.87E2,1E2,3.22E2,1.65E2,2.6E1,4.7E1,1.1E1,3.6E1,1.47E2,4.4E1,4E1,4E1,1.4E1,2.6E1,3.1E1,1E1,1E1,1E1,5.4E1,1.07E2,1.2E1,8.3E1,2.1E1,2.3E1,1.45E2,1.4E1,3E1,1E1,1.4E1,3.98E2,1.2E2,4.8E1,2.49E2,3.1E1,1.06E2,1.2E1,3.9E1,1.75E2,4.6E1,1.09E2,6.9E1,9.1E1,1.6E2,1.62E2,1.22E2,4.3E1,1E1,1.6E1,2.1E1,2.6E1,1E1,2.6E1,1.04E2,4.3E1,3E1,1E1,2.8E1,2.6E1,1.5E1,9.2E1,2.5E1,5.8E1,9.3E1,5.2E1,1.64E2,2.34E2,3.8E1,1E1,1.7E1,2.9E1,4.8E1,1.12E2,2.6E1,1.36E2,4.2E1,8E1,1E1,1.1E1,1.1E1,1.5E1,6E1,4.4E1,1.4E1,1.2E1,6.5E1,2.7E1,1.3E1,1.2E1,3.8E1,2E1,1E1,4.2E1,5.1E1,1.83E2],"tree_param":{"num_deleted":"0","num_feature":"17","num_nodes":"199","size_leaf_vector":"1"}},{"base_weights":[-3.728869E-1,1.4028403E2,-8.514989E1,1.2792285E2,1.799317E2,-1.6168971E2,1.2167148E1,1.3278772E2,7.9108734E1,1.3689178E2,1.9578226E2,-5.239752E1,-1.774865E2,-5.49383E1,4.3085342E1,1.491843E2,1.21009445E2,6.520186E0,8.217707E1,2.3655087E1,9.742337E1,3.123147E1,1.3877078E2,-2.3599846E1,-6.785243E1,-1.9124426E2,-1.4272774E2,-6.827381E1,2.4698932E0,-4.042467E1,8.404976E1,1.5541379E2,1.0879352E2,1.2799334E2,9.878107E1,9.368479E0,1.3738305E1,1.0853012E2,7.5192666E0,9.257968E1,2.4457058E1,-9.861664E0,-4.8393135E1,-8.289374E1,-4.454403E1,-3.583848E1,-1.8001381E2,-1.0932159E2,-1.792346E2,-8.138589E1,-4.0771103E1,-3.4783354E0,1.2498521E1,-2.705312E1,-6.37963E1,9.726615E1,4.238214E1,1.451531E2,2.9739754E1,9.82669E0,1.743919E1,1.0480479E2,1.3734195E2,1.5164591E1,8.182023E0,1.8355541E1,8.20352E0,1.8862793E1,4.028323E0,3.049173E0,-1.7554922E1,-9.15706E0,-3.375285E0,-6.929449E1,-1.8137262E1,-2.797803E0,-7.2862144E0,-1.6878156E2,-3.2803085E1,-1.3830446E2,-7.523715E1,-2.0423206E2,-1.0459202E2,-1.7188654E1,-7.180209E1,-9.209808E0,-2.7088549E1,-1.5908467E0,2.1771423E1,-3.527907E1,-1.4081145E1,-7.58194E1,-4.74478E1,9.2801254E1,2.8340166E1,5.3792E1,1.0213836E1,1.7140005E1,1.5521712E2,1.241733E2,8.642045E1,1.4729492E2,1.13052086E2,-2.5940643E1,-0E0,-4.791956E1,-1.1800547E1,-1.9012494E2,-1.4462366E2,-2.3614386E1,-1.0214395E2,-5.0382294E1,-1.4243876E1,-2.1235034E2,-1.0411241E1,-4.3705754E0,-1.7851358E1,-6.2309925E1,-9.736428E1,-1.4964528E1,-5.371342E0,4.2047915E0,-5.384361E-3,-2.0189693E1,-3.836139E1,-4.6361723E0,-2.2782421E1,-3.986132E0,-1.2667025E1,-3.7273956E1,-1.0563247E1,-1.6556828E0,9.611332E1,1.5198945E1,6.1393112E1,3.486525E0,-4.081833E0,1.9824099E1,2.5007612E1,2.072162E1,1.3248895E1,1.0148724E2,6.804189E1,2.2922953E1,1.5748304E1,1.8360056E1,1.2655309E1,-5.3063383E0,-1.5248588E0,-2.58762E0,-9.390901E0,-1.2825925E2,-2.2760008E2,-1.2408416E2,-2.6639088E1,-8.538903E0,-1.7563238E1,-8.734045E0,-2.1868842E0,-3.4026833E1,-1.7520176E1,-6.663731E1,-1.6532037E0,-6.5791316E0,-1.6338778E1,-1.2570485E0,-3.8215282E0,-1.2253945E0,-3.8938403E0,-3.0237656E0,-4.1453743E1,-8.262862E0,4.61748E-1,-2.7890066E1,-1.3532711E0,-4.138059E0,-6.940324E0,1.11630424E2,8.600787E1,8.2401127E-1,3.2243335E0,6.5940814E0,1.06515465E1,1.709268E1,8.317736E0,1.3595794E1,5.4334683E0,-1.4783511E1,-2.1810059E1,-2.935929E1,-4.037414E1,-2.0189928E1,-7.998102E0,-1.3970593E1,-8.010733E0,-6.894614E0,-3.36351E0,-1.7970076E0,-2.784762E-1,-5.0453305E0,-1.9435991E0,2.000092E1,1.4638369E1,9.3363285E0,1.3668029E1],"categories":[],"categories_nodes":[],"categories_segments":[],"categories_sizes":[],"default_left":[0,0,0,0,0,0,0,0,0,0,0,0,0,0,0,0,0,0,0,0,0,0,0,0,0,0,0,0,0,0,0,0,0,0,0,0,0,0,0,0,0,0,0,0,0,0,0,0,0,0,0,0,0,0,0,0,0,0,0,0,0,0,0,0,0,0,0,0,0,0,0,0,0,0,0,0,0,0,0,0,0,0,0,0,0,0,0,0,0,0,0,0,0,0,0,0,0,0,0,0,0,0,0,0,0,0,0,0,0,0,0,0,0,0,0,0,0,0,0,0,0,0,0,0,0,0,0,0,0,0,0,0,0,0,0,0,0,0,0,0,0,0,0,0,0,0,0,0,0,0,0,0,0,0,0,0,0,0,0,0,0,0,0,0,0,0,0,0,0,0,0,0,0,0,0,0,0,0,0,0,0,0,0,0,0,0,0,0,0,0,0,0,0,0,0,0,0,0,0,0,0,0,0,0,0],"id":10,"left_children":[1,3,5,7,9,11,13,15,17,19,21,23,25,27,29,31,33,-1,35,-1,37,-1,39,41,43,45,47,49,51,53,55,57,59,61,63,-1,-1,65,-1,67,-1,69,71,73,75,-1,77,79,81,83,85,-1,87,89,91,93,95,97,-1,-1,-1,99,101,-1,-1,-1,-1,-1,-1,-1,103,-1,-1,105,-1,-1,-1,107,-1,109,111,113,115,-1,117,-1,119,-1,121,123,125,127,129,131,-1,133,135,-1,137,139,141,143,145,147,-1,149,-1,151,153,-1,155,157,-1,159,-1,-1,-1,161,163,165,-1,-1,-1,167,169,171,173,-1,-1,175,-1,-1,177,179,181,-1,-1,-1,-1,-1,-1,183,185,-1,-1,-1,-1,-1,-1,-1,-1,187,189,191,-1,-1,-1,-1,-1,-1,-1,193,-1,-1,-1,-1,-1,-1,-1,-1,195,197,-1,199,-1,-1,-1,201,203,-1,-1,-1,-1,-1,-1,-1,-1,-1,-1,-1,-1,-1,-1,-1,-1,-1,-1,-1,-1,-1,-1,-1,-1,-1,-1],"loss_changes":[5.969911E7,8.59152E5,2.3273238E7,3.13872E5,2.26733E5,2.993128E6,2.8648818E6,2.03006E5,5.0466875E3,6.03795E4,1.34513E5,9.5393125E4,6.54796E5,3.3422375E5,3.241216E6,8.7999E4,8.5501E4,0E0,6.6309375E3,0E0,1.1486531E4,0E0,2.7381125E4,2.6709555E4,4.031775E4,4.55796E5,4.86962E5,1.18172375E5,2.2506516E4,9.2769875E4,3.379135E5,1.19696E5,3.9840625E3,8.6218E4,2.638875E3,0E0,0E0,9.631156E3,0E0,5.0325562E4,0E0,1.4112483E4,5.3528984E3,2.0144688E4,3.7062344E3,0E0,2.78614E5,2.06879E5,3.285335E5,5.177825E4,2.8758625E4,0E0,1.4081186E4,2.0243984E4,1.1810281E4,1.468705E5,5.620975E4,6.991E4,0E0,0E0,0E0,3.3814375E4,5.19965E4,0E0,0E0,0E0,0E0,0E0,0E0,0E0,6.948002E3,0E0,0E0,2.8713125E3,0E0,0E0,0E0,2.83922E5,0E0,4.067325E4,4.26075E4,1.26547E5,5.169275E4,0E0,2.9299E4,0E0,6.4241562E3,0E0,6.2528984E3,3.4305781E3,6.514131E3,1.836725E4,5.250922E3,1.6222275E5,0E0,3.118625E4,2.3369137E4,0E0,1.16445E4,5.94175E3,8.600875E3,1.66645E4,5.29375E3,3.578588E3,0E0,9.212176E3,0E0,7.58121E5,1.65465E5,0E0,1.5135375E4,1.3132906E4,0E0,1.17497E5,0E0,0E0,0E0,3.0364625E4,1.4874781E4,1.8586533E3,0E0,0E0,0E0,1.1624229E3,3.1265156E3,1.3060332E3,2.2183672E3,0E0,0E0,1.1719531E2,0E0,0E0,4.365275E4,9.8105176E2,7.05825E3,0E0,0E0,0E0,0E0,0E0,0E0,1.0339125E4,2.90805E4,0E0,0E0,0E0,0E0,0E0,0E0,0E0,0E0,3.2162E4,1.49325E5,1.3623775E5,0E0,0E0,0E0,0E0,0E0,0E0,0E0,3.3407375E4,0E0,0E0,0E0,0E0,0E0,0E0,0E0,0E0,3.8620312E3,6.260974E2,0E0,1.2027832E3,0E0,0E0,0E0,1.5308625E4,1.729925E4,0E0,0E0,0E0,0E0,0E0,0E0,0E0,0E0,0E0,0E0,0E0,0E0,0E0,0E0,0E0,0E0,0E0,0E0,0E0,0E0,0E0,0E0,0E0,0E0,0E0,0E0],"parents":[2147483647,0,0,1,1,2,2,3,3,4,4,5,5,6,6,7,7,8,8,9,9,10,10,11,11,12,12,13,13,14,14,15,15,16,16,18,18,20,20,22,22,23,23,24,24,25,25,26,26,27,27,28,28,29,29,30,30,31,31,32,32,33,33,34,34,37,37,39,39,41,41,42,42,43,43,44,44,46,46,47,47,48,48,49,49,50,50,52,52,53,53,54,54,55,55,56,56,57,57,61,61,62,62,70,70,73,73,77,77,79,79,80,80,81,81,82,82,84,84,86,86,88,88,89,89,90,90,91,91,92,92,93,93,95,95,96,96,98,98,99,99,100,100,101,101,102,102,103,103,105,105,107,107,108,108,110,110,111,111,113,113,117,117,118,118,119,119,123,123,124,124,125,125,126,126,129,129,132,132,133,133,134,134,141,141,142,142,151,151,152,152,153,153,161,161,170,170,171,171,173,173,177,177,178,178],"right_children":[2,4,6,8,10,12,14,16,18,20,22,24,26,28,30,32,34,-1,36,-1,38,-1,40,42,44,46,48,50,52,54,56,58,60,62,64,-1,-1,66,-1,68,-1,70,72,74,76,-1,78,80,82,84,86,-1,88,90,92,94,96,98,-1,-1,-1,100,102,-1,-1,-1,-1,-1,-1,-1,104,-1,-1,106,-1,-1,-1,108,-1,110,112,114,116,-1,118,-1,120,-1,122,124,126,128,130,132,-1,134,136,-1,138,140,142,144,146,148,-1,150,-1,152,154,-1,156,158,-1,160,-1,-1,-1,162,164,166,-1,-1,-1,168,170,172,174,-1,-1,176,-1,-1,178,180,182,-1,-1,-1,-1,-1,-1,184,186,-1,-1,-1,-1,-1,-1,-1,-1,188,190,192,-1,-1,-1,-1,-1,-1,-1,194,-1,-1,-1,-1,-1,-1,-1,-1,196,198,-1,200,-1,-1,-1,202,204,-1,-1,-1,-1,-1,-1,-1,-1,-1,-1,-1,-1,-1,-1,-1,-1,-1,-1,-1,-1,-1,-1,-1,-1,-1,-1],"split_conditions":[1.7205696E9,1.7197578E9,1.7238834E9,-8.8120174E-1,-6.087614E-1,-9.698021E-1,-9.233296E-1,1.7182819E9,-9.238795E-1,-9.9429464E-1,-9.912566E-1,-9.8109883E-1,6.2307E1,1.7263188E9,-5.8865535E-1,-8.947209E-1,2.1702312E-1,6.520186E0,-5E-1,2.3655087E1,5E-1,3.123147E1,3.637878E-1,2.5163E1,4.6531122E-2,-6.21204E-1,1.722888E9,-9.393651E-1,-7.818315E-1,1.7202E1,1.7253594E9,-9.0746635E-1,-5E-1,-5E-1,9.195E1,9.368479E0,1.3738305E1,2.127E0,7.5192666E0,1.7204957E9,2.4457058E1,-8.760291E-1,8.660254E-1,2.362E0,1.483E1,-3.583848E1,2.958E1,-8.760647E-1,2.5881904E-1,5.715E1,1.408E0,-3.4783354E0,7.2433E1,6.234898E-1,6.234898E-1,1.705863E-1,1.7255808E9,-6.087614E-1,2.9739754E1,9.82669E0,1.743919E1,3.5564533E-1,7.818315E-1,1.5164591E1,8.182023E0,1.8355541E1,8.20352E0,1.8862793E1,4.028323E0,3.049173E0,4.875E1,-9.15706E0,-3.375285E0,-9.773198E-1,-1.8137262E1,-2.797803E0,-7.2862144E0,-8.994742E-1,-3.2803085E1,1.3052619E-1,6.234898E-1,9.4717E1,-2.2252093E-1,-1.7188654E1,9.749279E-1,-9.209808E0,-7.818315E-1,-1.5908467E0,1.7264285E9,-7.1325046E-1,-5E-1,-3.9073113E-1,2.4225E1,1.7245116E9,2.8340166E1,4.1067E1,1.2246469E-16,1.7140005E1,-6.087614E-1,6.234898E-1,1.7190918E9,1E0,1.719351E9,1.3052619E-1,-0E0,-2.061574E-1,-1.1800547E1,-9.4698775E-1,1.7228142E9,-2.3614386E1,-7.818315E-1,-3.8268343E-1,-1.4243876E1,9.749279E-1,-1.0411241E1,-4.3705754E0,-1.7851358E1,8.9467E1,-7.470212E-1,1.8265E1,-5.371342E0,4.2047915E0,-5.384361E-3,1.3372E1,1.1632E1,1E0,1E0,-3.986132E0,-1.2667025E1,-6.4644325E-1,-1.0563247E1,-1.6556828E0,1.7248428E9,4.848096E-1,6.5317E1,3.486525E0,-4.081833E0,1.9824099E1,2.5007612E1,2.072162E1,1.3248895E1,1.675E0,-9.977999E-1,2.2922953E1,1.5748304E1,1.8360056E1,1.2655309E1,-5.3063383E0,-1.5248588E0,-2.58762E0,-9.390901E0,-9.622115E-1,-9.208315E-1,7.818315E-1,-2.6639088E1,-8.538903E0,-1.7563238E1,-8.734045E0,-2.1868842E0,-3.4026833E1,-1.7520176E1,-9.599327E-1,-1.6532037E0,-6.5791316E0,-1.6338778E1,-1.2570485E0,-3.8215282E0,-1.2253945E0,-3.8938403E0,-3.0237656E0,8.660254E-1,1.3173E1,4.61748E-1,-2.6163334E-1,-1.3532711E0,-4.138059E0,-6.940324E0,-8.374967E-1,-7.933533E-1,8.2401127E-1,3.2243335E0,6.5940814E0,1.06515465E1,1.709268E1,8.317736E0,1.3595794E1,5.4334683E0,-1.4783511E1,-2.1810059E1,-2.935929E1,-4.037414E1,-2.0189928E1,-7.998102E0,-1.3970593E1,-8.010733E0,-6.894614E0,-3.36351E0,-1.7970076E0,-2.784762E-1,-5.0453305E0,-1.9435991E0,2.000092E1,1.4638369E1,9.3363285E0,1.3668029E1],"split_indices":[7,7,7,12,9,12,11,7,9,12,12,12,1,7,12,12,11,0,10,0,10,0,5,3,5,11,7,11,13,3,7,12,9,9,1,0,0,2,0,7,0,5,10,2,3,0,3,12,10,1,2,0,1,14,14,6,7,9,0,0,0,4,13,0,0,0,0,0,0,0,1,0,0,12,0,0,0,12,0,9,14,1,14,0,13,0,13,0,7,4,10,4,3,7,0,1,4,0,10,14,7,14,7,9,0,11,0,12,7,0,13,10,0,13,0,0,0,1,5,3,0,0,0,3,3,14,14,0,0,12,0,0,7,4,1,0,0,0,0,0,0,2,12,0,0,0,0,0,0,0,0,12,12,13,0,0,0,0,0,0,0,11,0,0,0,0,0,0,0,0,9,3,0,4,0,0,0,11,9,0,0,0,0,0,0,0,0,0,0,0,0,0,0,0,0,0,0,0,0,0,0,0,0,0,0],"split_type":[0,0,0,0,0,0,0,0,0,0,0,0,0,0,0,0,0,0,0,0,0,0,0,0,0,0,0,0,0,0,0,0,0,0,0,0,0,0,0,0,0,0,0,0,0,0,0,0,0,0,0,0,0,0,0,0,0,0,0,0,0,0,0,0,0,0,0,0,0,0,0,0,0,0,0,0,0,0,0,0,0,0,0,0,0,0,0,0,0,0,0,0,0,0,0,0,0,0,0,0,0,0,0,0,0,0,0,0,0,0,0,0,0,0,0,0,0,0,0,0,0,0,0,0,0,0,0,0,0,0,0,0,0,0,0,0,0,0,0,0,0,0,0,0,0,0,0,0,0,0,0,0,0,0,0,0,0,0,0,0,0,0,0,0,0,0,0,0,0,0,0,0,0,0,0,0,0,0,0,0,0,0,0,0,0,0,0,0,0,0,0,0,0,0,0,0,0,0,0,0,0,0,0,0,0],"sum_hessian":[5.001E3,1.88E3,3.121E3,1.442E3,4.38E2,1.746E3,1.375E3,1.307E3,1.35E2,1.25E2,3.13E2,2.22E2,1.524E3,4.33E2,9.42E2,5.33E2,7.74E2,1.4E1,1.21E2,7.7E1,4.8E1,2.53E2,6E1,8E1,1.42E2,1.083E3,4.41E2,3.51E2,8.2E1,3.1E2,6.32E2,4.55E2,7.8E1,5.79E2,1.95E2,4.5E1,7.6E1,3.6E1,1.2E1,2.5E1,3.5E1,5.4E1,2.6E1,8.2E1,6E1,1.98E2,8.85E2,2.36E2,2.05E2,2.34E2,1.17E2,2.2E1,6E1,2.01E2,1.09E2,4.77E2,1.55E2,3.76E2,7.9E1,1.5E1,6.3E1,1.76E2,4.03E2,1.83E2,1.2E1,2.6E1,1E1,1.5E1,1E1,1E1,4.4E1,1.5E1,1.1E1,6.6E1,1.6E1,1E1,5E1,6.95E2,1.9E2,1.23E2,1.13E2,1.5E2,5.5E1,4.6E1,1.88E2,4.3E1,7.4E1,1.7E1,4.3E1,1.2E2,8.1E1,5.7E1,5.2E1,4.6E2,1.7E1,1.13E2,4.2E1,1E2,2.76E2,7.8E1,9.8E1,2.76E2,1.27E2,2.9E1,1.5E1,2.5E1,4.1E1,3.59E2,3.36E2,7.5E1,4.8E1,5.4E1,5.9E1,1.4E2,1E1,1E1,4.5E1,1.44E2,4.4E1,3.4E1,4E1,3.3E1,1E1,2.4E1,9.6E1,4.1E1,4E1,1E1,4.7E1,4.1E1,1.1E1,1.4E1,4.46E2,2E1,9.3E1,3.2E1,1E1,1E2,1.76E2,5.1E1,2.7E1,4.7E1,5.1E1,2.4E2,3.6E1,9E1,3.7E1,1.6E1,1.3E1,1E1,1.5E1,1.4E2,2.19E2,2.14E2,1.22E2,1.5E1,3.3E1,4.3E1,1.1E1,1.19E2,2.1E1,1.32E2,1.2E1,1E1,3.4E1,2.4E1,1E1,1E1,1.4E1,1.7E1,7.9E1,2.8E1,1.3E1,2.7E1,1.3E1,2.5E1,1.6E1,1.65E2,2.81E2,1E1,1E1,3.8E1,5.5E1,3.4E1,1.3E1,2.7E1,2.4E1,5.7E1,8.3E1,1.31E2,8.8E1,1.85E2,2.9E1,3.9E1,9.3E1,6.1E1,1.8E1,1.6E1,1.2E1,1.7E1,1E1,5.7E1,1.08E2,5.4E1,2.27E2],"tree_param":{"num_deleted":"0","num_feature":"17","num_nodes":"205","size_leaf_vector":"1"}},{"base_weights":[-3.2395577E-1,1.1947731E2,-7.254399E1,1.573596E2,1.0978959E2,-1.3895088E2,9.768343E0,1.8043726E2,1.242381E2,1.1368629E2,6.6024956E1,-6.123403E1,-1.5560558E2,-4.6871334E1,3.5005096E1,1.8395169E2,1.375828E1,9.962399E1,2.3377388E1,1.0739827E2,1.348567E2,4.346109E1,7.332082E1,-3.5785E1,-9.184406E1,-1.7981401E2,-1.3897363E2,-5.8287693E1,2.1302748E0,-3.6905003E1,7.2823425E1,1.4305262E1,1.8760616E2,1.120795E2,3.701595E0,8.072171E1,1.1180203E2,1.5000433E2,1.4150393E1,7.4768176E0,2.979572E0,8.09365E0,1.2164859E1,-2.8423979E1,-1.3960746E1,-1.0454018E1,-1.6956234E1,-1.7124625E2,-3.1433907E1,-1.18127975E2,-1.710784E2,-4.143958E1,-7.368235E1,1.280877E1,-1.671921E1,-2.747228E1,-5.863833E1,8.607016E1,4.2669662E1,2.4074787E1,3.0857044E1,9.637866E0,1.9597095E1,1.38254795E1,5.075831E1,1.0679441E2,1.931026E1,1.3917561E2,3.0400208E1,-1.2050501E1,-3.9995083E1,-1.8498668E2,-1.4851758E2,-8.4231674E1,-1.493429E2,-1.8071448E2,-1.830361E1,-4.8926373E1,-1.4312007E1,-8.420364E1,-3.5405663E1,3.587013E0,5.741743E0,-9.949836E-1,-4.536518E0,-3.5812798E1,-1.2828967E1,-6.45143E1,-3.5905563E1,8.1892E1,2.4666502E1,5.118615E1,7.843952E0,3.0348825E0,8.54925E0,1.1285955E2,7.4416435E1,1.8911318E1,2.523116E1,-1.6956625E1,1.6731111E0,-3.7763956E0,-7.268731E0,-3.301924E1,-2.4753239E1,-1.3121582E2,-3.1818E1,-6.0195385E1,-1.8071238E1,-1.1958503E2,-1.7696053E2,-1.9195578E2,-1.3182303E2,-3.631372E1,-9.886036E0,-1.0091476E0,-2.9683444E0,-7.487787E1,-1.7670263E1,1.8981262E0,-5.2688423E1,-1.0759922E0,1.4295044E1,